%YAML:1.0
---
opencv_ml_svm:
   format: 3
   svmType: C_SVC
   kernel:
      type: RBF
      gamma: 5.3830000000000000e+00
   C: 2.6699999999999999e+00
   term_criteria: { epsilon:1.1920928955078125e-07, iterations:1000 }
   var_count: 64
   class_count: 10
   class_labels: !!opencv-matrix
      rows: 10
      cols: 1
      dt: i
      data: [ 0, 1, 2, 3, 4, 5, 6, 7, 8, 9 ]
   sv_total: 440
   support_vectors:
      - [ 1.09265655e-01, 2.15221867e-02, 2.11884335e-01, 0.,
          3.71361673e-02, 0., 0., 0., 0., 4.93947528e-02, 3.48100603e-01,
          6.37432141e-03, 0., 0., 0., 0., 3.18339735e-01, 9.25348476e-02,
          1.06465951e-01, 5.63657880e-02, 6.30037561e-02, 4.91544195e-02,
          4.75552492e-02, 8.69414061e-02, 1.54994532e-01, 5.89528307e-02,
          2.63861209e-01, 6.09494001e-02, 1.46059528e-01, 1.13927893e-01,
          7.37372860e-02, 7.25542158e-02, 5.87174343e-03, 1.20346673e-01,
          3.33681665e-02, 0., 2.69345969e-01, 2.07009897e-01,
          1.22227840e-01, 1.08937278e-01, 2.36456409e-01, 1.28292397e-01,
          3.35039385e-02, 9.12781060e-02, 1.68274432e-01, 1.04398459e-01,
          1.02782845e-02, 6.85359389e-02, 2.56597549e-01, 1.73206642e-01,
          1.32298782e-01, 1.54416740e-01, 1.35846749e-01, 0.,
          2.01573744e-02, 2.85558794e-02, 1.77215561e-01, 6.84485510e-02,
          8.47432539e-02, 0., 3.71361673e-02, 1.39136404e-01,
          9.08572823e-02, 1.35589689e-01 ]
      - [ 2.08256200e-01, 2.06850935e-02, 0., 0., 1.56917885e-01,
          9.04194713e-02, 6.99682459e-02, 5.19606844e-02, 1.11867860e-01,
          1.87856182e-01, 1.22711062e-01, 7.17671663e-02, 0., 0., 0., 0.,
          1.05453990e-01, 1.44977808e-01, 3.34148765e-01, 0.,
          2.24140719e-01, 1.24075487e-01, 4.82216552e-02, 2.30174605e-02,
          1.09050013e-01, 2.90802075e-03, 2.72718966e-01, 0.,
          3.78115475e-01, 1.40968084e-01, 6.44962117e-02, 1.41273700e-02,
          0., 2.63564229e-01, 1.01040684e-01, 1.06071785e-01,
          1.30118743e-01, 9.39777195e-02, 9.40184668e-02, 1.81366559e-02,
          1.09058969e-01, 3.48603547e-01, 3.72473858e-02, 0., 0., 0., 0.,
          0., 0., 2.52135217e-01, 1.15495875e-01, 0., 0., 0., 0., 0.,
          1.94529772e-01, 2.37313807e-02, 3.31805460e-02, 0.,
          7.03647509e-02, 0., 0., 0. ]
      - [ 9.31558087e-02, 1.24027999e-02, 6.68902025e-02, 2.80478925e-01,
          9.47126821e-02, 4.02893275e-02, 9.77547765e-02, 9.11832899e-02,
          1.26514077e-01, 1.28584176e-01, 1.19126379e-01, 2.82021612e-01,
          0., 0., 0., 0., 3.20294768e-01, 2.52912521e-01, 0.,
          1.57839790e-01, 8.22706521e-02, 1.06297210e-01, 0.,
          6.84744045e-02, 2.86199272e-01, 1.43789440e-01, 6.22983389e-02,
          2.69039333e-01, 7.08944350e-02, 7.44421855e-02, 9.83135253e-02,
          7.78080523e-02, 0., 2.23594662e-02, 0., 2.74975933e-02,
          1.09270774e-01, 6.59282058e-02, 8.75637382e-02, 5.56606911e-02,
          3.53701651e-01, 1.90788712e-02, 0., 0., 0., 0., 0., 0.,
          3.69912297e-01, 9.13086161e-02, 1.01019733e-01, 7.72080645e-02,
          0., 0., 0., 0., 1.33280158e-01, 8.77010450e-03, 0., 0.,
          3.12884115e-02, 0., 0., 0. ]
      - [ 1.74905241e-01, 2.03690939e-02, 6.09748140e-02, 1.43855810e-01,
          1.18892580e-01, 0., 6.04797676e-02, 7.15825260e-02,
          9.16505083e-02, 2.24805966e-01, 1.00165814e-01, 0., 0., 0., 0.,
          0., 3.44210826e-02, 3.72173697e-01, 6.30839393e-02,
          1.31559834e-01, 2.91620582e-01, 9.65242460e-02, 0.,
          9.81760398e-02, 0., 2.61408001e-01, 7.95636475e-02,
          1.10879563e-01, 3.99574310e-01, 5.51930293e-02, 8.56720135e-02,
          6.92301318e-02, 0., 2.28291273e-01, 2.73933206e-02,
          1.04386680e-01, 3.88037153e-02, 7.57660940e-02, 5.72397038e-02,
          9.25047174e-02, 2.50177365e-02, 2.96378404e-01, 0., 0., 0., 0.,
          0., 0., 0., 2.93132871e-01, 3.42147090e-02, 0., 0., 0., 0., 0.,
          1.64411321e-01, 1.92488790e-01, 0., 0., 5.84936067e-02, 0., 0.,
          0. ]
      - [ 9.70204100e-02, 1.10077009e-01, 9.84385982e-02, 9.31665525e-02,
          0., 1.39964819e-01, 1.33855268e-01, 1.73807293e-01,
          1.50448292e-01, 1.47028223e-01, 1.67606816e-01, 1.48895234e-01,
          9.84585881e-02, 7.43646398e-02, 1.07826382e-01, 9.79382843e-02,
          1.47686332e-01, 1.08109660e-01, 5.55562750e-02, 6.51458129e-02,
          1.32528394e-01, 1.09415539e-01, 1.12543784e-01, 1.19693913e-01,
          1.11344449e-01, 7.65786842e-02, 1.11711301e-01, 1.38574138e-01,
          1.67172164e-01, 1.88785911e-01, 2.10015923e-01, 1.59550771e-01,
          1.33588806e-01, 1.00105725e-01, 0., 0., 1.10253446e-01,
          1.41776204e-01, 1.61188751e-01, 1.49771452e-01, 1.69936582e-01,
          1.49001107e-01, 0., 0., 2.43896283e-02, 0., 8.38533714e-02,
          1.31744251e-01, 1.83360621e-01, 1.71204776e-01, 2.07531512e-01,
          1.97617844e-01, 9.54865366e-02, 7.27885365e-02, 1.30531117e-01,
          1.33792520e-01, 1.32591784e-01, 9.13973600e-02, 1.12279803e-01,
          9.82770249e-02, 9.79757532e-02, 7.10660368e-02, 1.05695672e-01,
          1.67172536e-01 ]
      - [ 1.41077951e-01, 0., 0., 0., 4.67795767e-02, 0., 8.31141137e-03,
          0., 9.88398958e-03, 1.32742077e-01, 0., 0., 0., 0., 0., 0.,
          1.13194048e-01, 4.07988816e-01, 0., 0., 0., 7.73841962e-02,
          8.74907225e-02, 1.15556985e-01, 1.96506798e-01, 3.26513708e-01,
          9.23852324e-02, 2.15973064e-01, 1.29711673e-01, 7.08738491e-02,
          9.16721299e-02, 8.78562927e-02, 1.60171494e-01, 1.98369235e-01,
          7.94956163e-02, 1.00018278e-01, 2.37074494e-01, 1.13709621e-01,
          6.98849037e-02, 8.74808729e-02, 9.65640172e-02, 3.95989448e-01,
          1.31652147e-01, 7.95266703e-02, 0., 0., 7.51433149e-02,
          1.37293652e-01, 7.54735470e-02, 3.17564845e-01, 5.20407110e-02,
          0., 0., 0., 0., 0., 1.50215834e-01, 1.05131958e-02, 0., 0.,
          4.84214611e-02, 5.40478975e-02, 3.16741168e-02, 0. ]
      - [ 1.00766517e-01, 8.23578760e-02, 1.27596438e-01, 1.46705836e-01,
          3.02932821e-02, 0., 4.63469066e-02, 8.65994915e-02,
          3.12119991e-01, 7.47691467e-02, 8.63952115e-02, 1.32145196e-01,
          1.85117036e-01, 6.66286498e-02, 5.01712300e-02, 8.58244821e-02,
          1.51307523e-01, 6.95508793e-02, 3.85436229e-02, 1.50157705e-01,
          2.27914006e-01, 1.05973646e-01, 4.64547016e-02, 1.10061662e-02,
          3.71353328e-02, 0., 1.56255178e-02, 9.79788452e-02,
          2.83487171e-01, 1.85908258e-01, 1.74791262e-01, 1.08215533e-01,
          3.27502862e-02, 1.60413310e-02, 9.87477303e-02, 9.31944549e-02,
          2.09690452e-01, 1.93656057e-01, 1.62415519e-01, 1.18949585e-01,
          6.89676851e-02, 6.15867265e-02, 8.44077393e-02, 1.47580892e-01,
          1.14051186e-01, 1.40922934e-01, 1.32596269e-01, 1.10061662e-02,
          1.85355127e-01, 1.69401094e-01, 1.79457739e-01, 1.65612534e-01,
          0., 5.20051531e-02, 9.94847566e-02, 1.40035287e-01,
          1.39952570e-01, 1.08867675e-01, 1.17928848e-01, 1.12994954e-01,
          0., 0., 9.38253663e-03, 1.72181532e-01 ]
      - [ 1.37133420e-01, 1.37158073e-02, 0., 0., 4.67698053e-02, 0.,
          4.86396961e-02, 1.35178864e-01, 1.78945959e-01, 1.55616835e-01,
          1.27445906e-01, 1.32615685e-01, 0., 0., 0., 0., 1.97236866e-01,
          2.00730130e-01, 1.63168058e-01, 1.42344728e-01, 5.15814200e-02,
          0., 6.99875653e-02, 4.68170233e-02, 1.56065166e-01,
          1.99026302e-01, 1.57023355e-01, 1.44196063e-01, 1.53808787e-01,
          1.29289702e-01, 1.61241278e-01, 1.92886770e-01, 1.58182591e-01,
          2.11945176e-01, 1.00886486e-01, 1.28394485e-01, 1.84497431e-01,
          1.34946451e-01, 1.52973428e-01, 1.91264376e-01, 1.80297419e-01,
          2.07584336e-01, 1.86176106e-01, 9.23682675e-02, 6.99307844e-02,
          0., 6.62702620e-02, 6.72103167e-02, 1.73827320e-01,
          1.75915837e-01, 1.74596280e-01, 8.52071196e-02, 4.07773396e-03,
          0., 4.78898138e-02, 1.16109364e-01, 1.59203187e-01,
          5.78422770e-02, 0., 0., 4.58615683e-02, 0., 3.91314588e-02,
          1.75593987e-01 ]
      - [ 1.36339143e-01, 0., 1.42155662e-01, 0., 4.65529598e-02, 0., 0.,
          0., 0., 2.81947907e-02, 2.29719087e-01, 0., 0., 0., 0., 0.,
          1.60422064e-02, 3.54485035e-01, 9.51143801e-02, 6.12841509e-02,
          5.08818775e-02, 0., 0., 9.69273448e-02, 9.99867618e-02,
          1.79383099e-01, 3.20953280e-01, 1.11550719e-01, 7.58084282e-02,
          1.07822016e-01, 7.21325353e-02, 4.52737212e-02, 0.,
          1.55011177e-01, 1.62300587e-01, 5.85971810e-02, 2.54819602e-01,
          1.79708526e-01, 1.31130502e-01, 1.30258486e-01, 1.19310506e-01,
          2.47742638e-01, 1.70155495e-01, 1.11453287e-01, 1.73089892e-01,
          1.20374739e-01, 3.79326083e-02, 8.24503452e-02, 1.36480153e-01,
          2.77762562e-01, 1.41298085e-01, 1.09336950e-01, 1.12173140e-01,
          0., 0., 0., 1.27286121e-01, 1.84802428e-01, 1.20389527e-02, 0.,
          4.53742146e-02, 0., 1.32879421e-01, 8.45459104e-02 ]
      - [ 0., 0., 0., 0., 1.02970548e-01, 1.22817352e-01, 8.63774270e-02,
          3.68512213e-01, 1.00070722e-01, 4.63109799e-02, 2.35856712e-01,
          0., 0., 0., 0., 0., 8.95880014e-02, 0., 0., 0., 2.53035799e-02,
          0., 1.06388452e-02, 1.29835784e-01, 8.61603469e-02,
          1.33776395e-02, 0., 0., 1.19368143e-01, 6.36275560e-02,
          1.31836176e-01, 4.34789866e-01, 5.06071597e-02, 0.,
          5.91160059e-02, 7.14867339e-02, 6.54259175e-02, 5.25678545e-02,
          5.44909053e-02, 2.91221499e-01, 1.51378050e-01, 5.17654046e-02,
          8.96158591e-02, 0., 2.53035799e-02, 0., 1.06388452e-02,
          3.50301154e-02, 8.99828672e-02, 8.41817632e-02, 1.40240133e-01,
          2.17305586e-01, 8.08207467e-02, 0., 0., 2.67946661e-01,
          1.32859722e-01, 4.25612219e-02, 0., 0., 6.09633923e-02,
          1.26542628e-01, 1.02198556e-01, 3.92008454e-01 ]
      - [ 1.43417761e-01, 0., 0., 0., 4.91154194e-02, 8.38227049e-02,
          2.68371794e-02, 0., 1.80864930e-01, 1.24301821e-01,
          3.80974561e-02, 5.49550280e-02, 0., 0., 0., 0., 3.68676752e-01,
          1.71722919e-01, 1.33446204e-02, 0., 1.08289318e-02, 0.,
          1.28788933e-01, 1.29173204e-01, 2.46876180e-01, 1.70785189e-01,
          9.03735459e-02, 2.44285315e-01, 1.26870722e-01, 1.07451364e-01,
          8.60722661e-02, 7.86150098e-02, 1.10293344e-01, 8.17728043e-02,
          0., 1.06264435e-01, 2.77504891e-01, 8.60762298e-02,
          5.96128264e-03, 6.94450587e-02, 3.18055391e-01, 2.52929777e-01,
          1.01860434e-01, 1.00425325e-01, 0., 0., 0., 9.06637385e-02,
          3.38173836e-01, 1.61424428e-01, 6.01670668e-02, 9.38634649e-02,
          7.35233650e-02, 0., 0., 0., 1.34734645e-01, 3.44771743e-02, 0.,
          0., 8.82118940e-02, 6.03450499e-02, 8.58834907e-02,
          9.40232575e-02 ]
      - [ 8.34874734e-02, 2.60728747e-02, 2.11738423e-01, 0.,
          2.95745414e-02, 0., 0., 0., 0., 4.79590744e-02, 2.73377925e-01,
          0., 0., 0., 0., 0., 3.36306363e-01, 7.63283968e-02,
          1.15363993e-01, 5.45149110e-02, 0., 5.35367168e-02,
          8.99082497e-02, 1.11245262e-02, 2.65841573e-01, 8.34454671e-02,
          2.39079326e-01, 7.39828125e-02, 1.01196244e-01, 4.06002663e-02,
          7.75395781e-02, 8.04816857e-02, 0., 0., 0., 0., 2.83446997e-01,
          1.89055353e-01, 1.30055293e-01, 9.16040912e-02, 2.26733580e-01,
          1.19810566e-01, 0., 5.50193526e-02, 2.46551052e-01,
          9.46163312e-02, 3.92379165e-02, 8.84421468e-02, 2.79634506e-01,
          1.80451632e-01, 1.21198826e-01, 1.91087946e-01, 3.28157432e-02,
          5.16692214e-02, 6.95113232e-03, 6.72315210e-02, 1.81325659e-01,
          1.00971684e-01, 8.98127854e-02, 5.98274320e-02, 2.76644509e-02,
          1.49990901e-01, 1.19154505e-01, 8.33070800e-02 ]
      - [ 1.86717629e-01, 1.49729371e-01, 0., 7.32601881e-02,
          5.90755194e-02, 0., 0., 0., 2.08014876e-01, 2.50230849e-01,
          1.81053311e-01, 7.05282465e-02, 0., 8.41183811e-02, 0.,
          5.31889647e-02, 6.22933209e-02, 1.46130353e-01, 1.67278633e-01,
          0., 1.04131483e-01, 5.57419583e-02, 9.94981229e-02,
          3.36166136e-02, 5.18420413e-02, 8.09516292e-03, 1.02996200e-01,
          2.01682031e-01, 1.72730088e-01, 1.66319519e-01, 1.40875354e-01,
          6.17943779e-02, 4.71616201e-02, 0., 0., 0., 1.48189411e-01,
          1.52526602e-01, 2.17430532e-01, 2.14410469e-01, 1.53921202e-01,
          0., 0., 0., 1.92536507e-02, 0., 1.06510304e-01, 3.04132432e-01,
          1.84470057e-01, 1.72556698e-01, 1.50096282e-01, 1.53668955e-01,
          8.88661295e-02, 0., 1.18125550e-01, 2.69648463e-01,
          1.21473938e-01, 9.58858803e-02, 1.37518905e-02, 4.41836864e-02,
          7.22084120e-02, 7.45568499e-02, 1.10522695e-01, 2.11495414e-01 ]
      - [ 1.13805398e-01, 8.64677280e-02, 1.02782309e-01, 1.24752864e-01,
          7.81463981e-02, 7.87723288e-02, 4.80617434e-02, 8.34798291e-02,
          1.55996904e-02, 2.97140986e-01, 3.15560587e-02, 6.49901293e-03,
          0., 5.04988208e-02, 3.41912508e-02, 6.69957772e-02,
          3.06429155e-02, 1.77397400e-01, 1.05996601e-01, 1.50884300e-01,
          2.81393707e-01, 1.22999385e-01, 8.31137896e-02, 0.,
          3.35438959e-02, 5.85184954e-02, 6.45557940e-02, 9.33234319e-02,
          3.47198516e-01, 1.54330656e-01, 1.58624560e-01, 1.08523436e-01,
          0., 9.60982498e-03, 2.72001680e-02, 1.06624186e-01,
          1.72870070e-01, 1.61239028e-01, 1.19123243e-01, 1.62458956e-01,
          8.61689523e-02, 8.93725455e-02, 6.20405413e-02, 1.29112020e-01,
          1.22877523e-01, 1.33582652e-01, 1.30035311e-01, 1.60824195e-01,
          1.88643843e-01, 1.75803795e-01, 1.82419702e-01, 1.34478316e-01,
          0., 0., 7.78495222e-02, 1.16562314e-01, 1.75988123e-01,
          1.78994372e-01, 1.38974890e-01, 8.87245163e-02, 3.76557000e-02,
          0., 0., 1.35205165e-01 ]
      - [ 1.52454764e-01, 9.70911607e-02, 1.22206584e-01, 9.48007852e-02,
          8.48190635e-02, 9.56636071e-02, 6.24836534e-02, 4.49215770e-02,
          1.87740270e-02, 1.39494210e-01, 1.58230811e-01, 1.00288816e-01,
          0., 0., 0., 0., 1.36473164e-01, 1.70570105e-01, 8.07118490e-02,
          1.35028496e-01, 1.43235311e-01, 1.11980312e-01, 9.40320864e-02,
          1.26689896e-01, 1.21006586e-01, 1.32043093e-01, 1.77113429e-01,
          1.18317544e-01, 1.99879512e-01, 1.61611140e-01, 1.50936499e-01,
          1.40220731e-01, 0., 1.35419201e-02, 1.35562539e-01,
          1.99406654e-01, 2.71071464e-01, 1.84686661e-01, 7.78444335e-02,
          6.58299178e-02, 1.02790315e-02, 1.34452209e-01, 2.18495786e-01,
          2.37758815e-01, 2.15375304e-01, 9.10045281e-02, 5.00290878e-02,
          8.19665641e-02, 7.17028379e-02, 8.81459340e-02, 2.16653451e-01,
          1.85043201e-01, 1.24026775e-01, 0., 2.35996358e-02,
          5.82751445e-03, 1.42620385e-01, 1.66843776e-02, 9.43807885e-02,
          8.62243101e-02, 1.28425986e-01, 1.36454239e-01, 6.06022328e-02,
          3.74335907e-02 ]
      - [ 1.14322968e-01, 1.10121317e-01, 1.21186152e-01, 9.18709859e-02,
          1.10326789e-01, 8.56823623e-02, 3.95986922e-02, 1.96788177e-01,
          1.70169175e-01, 1.75250456e-01, 2.19009295e-01, 1.93264112e-01,
          1.07029021e-01, 6.71565384e-02, 8.25107023e-02, 1.36507988e-01,
          6.12735189e-02, 7.91929215e-02, 1.25883475e-01, 1.30186647e-01,
          1.16739497e-01, 1.31221175e-01, 3.37180160e-02, 1.23005249e-01,
          4.58677374e-02, 2.57879514e-02, 0., 1.28919512e-01,
          1.69249922e-01, 2.16138288e-01, 2.07142785e-01, 0.,
          1.06220469e-01, 9.92150381e-02, 0., 0., 8.72053877e-02,
          1.67083293e-01, 2.52947003e-01, 1.69647917e-01, 0., 0., 0., 0.,
          4.49207574e-02, 3.12412176e-02, 1.45188853e-01, 1.77915543e-01,
          1.65626958e-01, 1.29055291e-01, 1.83053166e-01, 1.62585527e-01,
          1.38215333e-01, 6.53425679e-02, 1.38075098e-01, 1.53073594e-01,
          1.13483816e-01, 9.13222060e-02, 8.86909366e-02, 1.13831170e-01,
          9.30230469e-02, 9.28592607e-02, 1.27344832e-01, 1.65255398e-01 ]
      - [ 1.03089437e-01, 7.51573592e-02, 1.30408183e-01, 1.47807924e-02,
          1.25030279e-02, 0., 0., 0., 3.17309916e-01, 6.61640912e-02,
          8.50735456e-02, 1.85739577e-01, 4.71397936e-02, 0.,
          6.84978589e-02, 8.14930648e-02, 1.23761147e-01, 9.01412666e-02,
          1.24640882e-01, 2.68759698e-01, 1.00247271e-01, 7.42709488e-02,
          9.63761359e-02, 0., 0., 1.39083853e-02, 5.70543930e-02,
          2.90727198e-01, 1.48790061e-01, 1.81756735e-01, 1.54366642e-01,
          1.72197446e-01, 0., 5.96586727e-02, 8.56583044e-02,
          1.36797562e-01, 1.65096328e-01, 1.70649156e-01, 1.64286226e-01,
          1.30206674e-01, 4.31480110e-02, 5.29890098e-02, 9.59789306e-02,
          1.39464512e-01, 6.47107735e-02, 1.47205427e-01, 1.21865973e-01,
          0., 2.00982571e-01, 2.05496177e-01, 1.68621436e-01,
          1.51394889e-01, 9.98286679e-02, 0., 4.40075137e-02,
          1.69695362e-01, 1.46573633e-01, 1.40010476e-01, 1.13533154e-01,
          1.01457641e-01, 1.01103939e-01, 0., 1.36387451e-02,
          1.41324863e-01 ]
      - [ 1.70745954e-01, 7.84447715e-02, 1.42556503e-01, 2.10364684e-01,
          2.40144841e-02, 0., 0., 2.59206221e-02, 3.01825762e-01,
          6.85736462e-02, 8.37223232e-02, 2.78318822e-01, 5.45143709e-02,
          5.93109094e-02, 4.42288965e-02, 8.85425955e-02, 1.02922410e-01,
          6.74973950e-02, 8.04130584e-02, 2.00976014e-01, 1.41797900e-01,
          1.23669930e-01, 4.63109575e-02, 6.68252707e-02, 4.79171723e-02,
          0., 0., 2.15802848e-01, 1.56207696e-01, 1.80210114e-01,
          1.72019601e-01, 3.99925932e-02, 4.71379794e-02, 1.61822103e-02,
          1.11100860e-01, 1.29509196e-01, 1.72268227e-01, 1.59480259e-01,
          1.60424009e-01, 7.75880143e-02, 8.44625533e-02, 4.46058214e-02,
          9.01806355e-02, 8.38608369e-02, 1.24242678e-01, 1.43280625e-01,
          1.54268265e-01, 6.07209913e-02, 1.68652833e-01, 1.54914171e-01,
          1.39648378e-01, 1.49239376e-01, 1.16984621e-01, 3.93912196e-02,
          9.89678800e-02, 1.68744728e-01, 1.42579004e-01, 1.28676966e-01,
          1.12624094e-01, 1.42914742e-01, 0., 0., 6.26734272e-03,
          1.93379194e-01 ]
      - [ 1.23787098e-01, 1.06347743e-02, 0., 0., 4.38103192e-02,
          7.50937313e-02, 1.40684852e-02, 2.14994699e-02, 2.54125744e-01,
          1.05883330e-01, 3.99462171e-02, 6.18163310e-02, 0., 0., 0., 0.,
          4.03403550e-01, 1.40772656e-01, 0., 0., 0., 0., 8.71538073e-02,
          1.65381521e-01, 2.68832326e-01, 6.72263727e-02, 8.70143697e-02,
          2.03053311e-01, 1.30087018e-01, 6.72344863e-02, 9.35035944e-02,
          8.64818022e-02, 3.13224852e-01, 0., 7.39731863e-02,
          9.80175734e-02, 2.14088902e-01, 1.76596552e-01, 1.63892880e-02,
          0., 3.78936857e-01, 1.94794580e-01, 6.30083010e-02,
          1.13010652e-01, 0., 0., 7.84201995e-02, 8.20538327e-02,
          2.73454249e-01, 1.15270354e-01, 5.50514683e-02, 0., 0., 0., 0.,
          0., 1.15421794e-01, 1.06347743e-02, 0., 0., 4.19451892e-02,
          4.91447300e-02, 1.87998042e-02, 6.06814474e-02 ]
      - [ 1.00634068e-01, 1.33055851e-01, 1.15545601e-01, 1.47816971e-01,
          1.88399665e-02, 0., 6.55153440e-03, 2.84943402e-01,
          1.01781629e-01, 6.60495609e-02, 1.74057201e-01, 2.04154432e-01,
          4.45845611e-02, 6.39958531e-02, 3.54003981e-02, 1.64886042e-01,
          7.96279013e-02, 7.25203678e-02, 1.30069673e-01, 2.17486814e-01,
          1.35981649e-01, 1.20825283e-01, 1.29351020e-01, 7.38976747e-02,
          6.80422932e-02, 0., 2.69084144e-02, 2.47043878e-01,
          1.56592816e-01, 1.59521118e-01, 1.58821180e-01, 1.56701967e-01,
          4.18237895e-02, 1.06793448e-01, 8.77807736e-02, 8.57561752e-02,
          1.08359851e-01, 1.65534869e-01, 1.30735189e-01, 1.46782264e-01,
          3.93152237e-02, 6.44193441e-02, 1.13259934e-01, 0.,
          7.85902739e-02, 1.22186743e-01, 1.24349490e-01, 6.77157715e-02,
          1.65118307e-01, 1.68957397e-01, 1.78126946e-01, 1.35261968e-01,
          1.35648623e-01, 0., 2.02867966e-02, 1.69123560e-01,
          1.65589392e-01, 1.25335455e-01, 1.29022270e-01, 7.92544484e-02,
          1.21398889e-01, 8.95844772e-02, 2.36367118e-02, 1.69182181e-01 ]
      - [ 1.85523570e-01, 1.33034691e-01, 5.28001375e-02, 0.,
          2.60834489e-02, 0., 2.07765345e-02, 1.70758411e-01,
          1.97012857e-01, 1.93107739e-01, 1.61208689e-01, 9.03303251e-02,
          0., 4.59664827e-03, 9.94658917e-02, 1.39359102e-01,
          1.39817566e-01, 4.04372513e-02, 7.31025040e-02, 1.17874697e-01,
          6.64009973e-02, 9.66793969e-02, 9.51162502e-02, 1.63519189e-01,
          1.50270462e-01, 1.22716598e-01, 8.81310403e-02, 1.36532634e-01,
          1.52806878e-01, 1.46007091e-01, 1.77709326e-01, 2.37976968e-01,
          0., 0., 0., 0., 2.39091024e-01, 1.87303394e-01, 2.12300211e-01,
          9.85038877e-02, 3.65198068e-02, 6.12314455e-02, 8.37393999e-02,
          1.32382885e-01, 1.28837198e-01, 1.43604353e-01, 1.08094305e-01,
          0., 2.32128993e-01, 2.11209357e-01, 1.51167244e-01,
          2.24181443e-01, 6.11302070e-02, 4.78141420e-02, 6.72969222e-02,
          3.98840941e-02, 1.10920154e-01, 1.61112979e-01, 1.27063170e-01,
          1.27356797e-01, 9.17808786e-02, 0., 0., 0. ]
      - [ 1.34979859e-01, 1.74306974e-01, 1.31187126e-01, 1.35748535e-01,
          9.24898311e-02, 0., 0., 0., 2.19743267e-01, 1.97424859e-01,
          1.58194110e-01, 1.85165480e-01, 5.48223071e-02, 2.12317947e-02,
          8.01535100e-02, 0., 8.56032223e-02, 7.60858282e-02,
          5.53757362e-02, 1.51316732e-01, 1.59496993e-01, 1.62246108e-01,
          1.37711808e-01, 1.19570151e-01, 0., 0., 0., 1.30794197e-01,
          2.31151909e-01, 1.89058229e-01, 1.89231604e-01, 1.27973229e-01,
          1.46910667e-01, 1.27947792e-01, 3.13024260e-02, 0.,
          1.83960676e-01, 1.49103776e-01, 1.48709863e-01, 1.59492493e-01,
          1.88553065e-01, 4.97559877e-03, 2.52430514e-02, 1.04251072e-01,
          1.15641937e-01, 1.09494075e-01, 1.25032753e-01, 1.31786406e-01,
          1.82205603e-01, 1.65740773e-01, 1.41503751e-01, 1.28485247e-01,
          2.18450651e-02, 4.88366075e-02, 9.17179883e-02, 1.33843079e-01,
          1.76590860e-01, 1.25697672e-01, 1.28677741e-01, 5.16830571e-02,
          2.64617074e-02, 0., 2.88268421e-02, 1.61366060e-01 ]
      - [ 1.23629510e-01, 4.60646488e-03, 1.06571302e-01, 1.50717765e-01,
          2.03682378e-01, 7.21510649e-02, 7.97863118e-03, 5.46451844e-02,
          1.79535434e-01, 1.90246478e-01, 6.77662268e-02, 1.18890785e-01,
          1.74075484e-01, 3.62153873e-02, 7.97863118e-03, 0.,
          5.32365255e-02, 3.54418010e-01, 0., 0., 2.28268132e-01,
          1.22477114e-01, 5.64174447e-03, 7.52816051e-02, 0.,
          2.77179062e-01, 0., 0., 3.42110634e-01, 1.06549017e-01,
          8.77863839e-02, 9.82787535e-02, 0., 1.93737403e-01,
          9.83768478e-02, 1.03924029e-01, 6.09260537e-02, 8.74079391e-02,
          7.74494857e-02, 2.23331936e-02, 1.12370327e-01, 3.14053208e-01,
          0., 0., 0., 0., 0., 0., 0., 3.44871700e-01, 0., 0., 0., 0., 0.,
          0., 1.15856238e-01, 1.92487627e-01, 0., 0., 4.09939066e-02, 0.,
          0., 0. ]
      - [ 0., 2.16101721e-01, 5.99014685e-02, 2.88736131e-02, 0., 0., 0.,
          0., 0., 3.85141999e-01, 3.81242186e-02, 0., 0., 0., 0., 0., 0.,
          0., 0., 0., 6.69013560e-02, 0., 8.67270529e-02, 1.89643219e-01,
          0., 8.54870155e-02, 1.00820206e-01, 1.07598349e-01,
          1.29896194e-01, 9.28377286e-02, 8.54378790e-02, 3.63489330e-01,
          6.58104122e-02, 1.45211697e-01, 2.60572825e-02, 2.67721206e-01,
          1.07693955e-01, 6.32683635e-02, 9.11723599e-02, 1.67309001e-01,
          1.05498821e-01, 2.03786954e-01, 1.29585396e-02, 1.51349187e-01,
          1.16795361e-01, 4.61004339e-02, 6.76647872e-02, 4.93579470e-02,
          1.32178918e-01, 1.28135979e-01, 1.57069370e-01, 1.85920924e-01,
          1.17489450e-01, 1.34247869e-01, 9.01483521e-02, 2.15216368e-01,
          1.04479402e-01, 6.55227676e-02, 8.56914744e-02, 5.78864403e-02,
          1.27852798e-01, 1.11736983e-01, 1.16942890e-01, 2.47309461e-01 ]
      - [ 1.34045362e-01, 4.88128252e-02, 1.45070225e-01, 2.06587642e-01,
          6.46116957e-02, 7.01309219e-02, 6.98573962e-02, 9.60587487e-02,
          2.09902138e-01, 1.16982915e-01, 1.47226170e-01, 1.91476569e-01,
          0., 0., 0., 0., 3.28081876e-01, 2.12660402e-01, 4.22115698e-02,
          2.67410606e-01, 6.47245944e-02, 1.02221459e-01, 0.,
          7.91480467e-02, 2.56727189e-01, 9.41836536e-02, 6.46275431e-02,
          3.47787619e-01, 7.94653967e-02, 1.06638774e-01, 4.99456190e-03,
          9.66818184e-02, 6.40736744e-02, 9.98912379e-03, 1.06175646e-01,
          0., 7.22021759e-02, 9.53915715e-02, 3.53168859e-03,
          7.74761140e-02, 2.28217855e-01, 1.32520184e-01, 0., 0., 0., 0.,
          0., 0., 3.17931116e-01, 1.56768501e-01, 0., 0., 0., 0., 0., 0.,
          2.59503126e-01, 4.67999689e-02, 0., 0., 4.44476604e-02, 0., 0.,
          0. ]
      - [ 4.38483618e-02, 9.29575711e-02, 6.77086934e-02, 1.21532381e-01,
          1.50431663e-01, 7.50565082e-02, 7.54299760e-02, 8.45186710e-02,
          1.07042849e-01, 1.45302504e-01, 2.21427470e-01, 1.36087537e-01,
          0., 0., 0., 0., 1.70534313e-01, 1.97302520e-01, 0., 0.,
          1.25517741e-01, 1.25872478e-01, 1.18899040e-01, 1.67151034e-01,
          1.11314610e-01, 1.43371016e-01, 9.43207294e-02, 1.20341860e-01,
          1.49616063e-01, 2.50878811e-01, 2.11503580e-01, 1.24537222e-01,
          0., 0., 8.26095790e-02, 1.53410733e-01, 1.77788034e-01,
          1.14948675e-01, 1.12078384e-01, 8.96801576e-02, 0.,
          8.85237306e-02, 1.08870342e-01, 1.16955452e-01, 1.92740351e-01,
          1.75254662e-02, 5.72020886e-03, 0., 2.19285965e-01,
          1.74437165e-01, 1.73863515e-01, 1.17011301e-01, 8.87035504e-02,
          9.98638272e-02, 2.10508317e-01, 1.63000360e-01, 1.80914745e-01,
          2.90352255e-02, 7.15282559e-02, 7.52227902e-02, 1.28741384e-01,
          0., 1.29035577e-01, 1.72953621e-01 ]
      - [ 1.44640088e-01, 1.54518755e-02, 0., 2.23136008e-01,
          1.29942730e-01, 9.57984105e-02, 4.67984304e-02, 9.14529637e-02,
          9.17891338e-02, 1.16424367e-01, 9.82561111e-02, 2.46212512e-01,
          0., 0., 0., 0., 1.18338667e-01, 3.76794994e-01, 4.57789004e-02,
          2.15371475e-01, 1.02193430e-01, 5.05758636e-02, 5.36844358e-02,
          6.61593527e-02, 5.73963895e-02, 3.15314084e-01, 1.99236162e-02,
          3.16725314e-01, 1.09953091e-01, 9.81515497e-02, 3.16899270e-02,
          8.56352076e-02, 1.64576337e-01, 7.87310973e-02, 6.05709702e-02,
          1.10125341e-01, 7.64651075e-02, 1.04375139e-01, 7.50258639e-02,
          4.86787818e-02, 3.34886104e-01, 1.32895231e-01, 0., 0., 0., 0.,
          0., 0., 3.12103570e-01, 1.20134495e-01, 0., 0., 0., 0., 0., 0.,
          1.54042095e-01, 1.77274682e-02, 0., 0., 4.95567247e-02, 0., 0.,
          0. ]
      - [ 2.17556164e-01, 1.05815001e-01, 0., 0., 6.74155504e-02,
          7.34721497e-02, 7.24725947e-02, 0., 3.35209161e-01,
          1.41477406e-01, 9.85461250e-02, 7.08712041e-02, 0., 0., 0., 0.,
          0., 0., 0., 0., 2.34445073e-02, 0., 6.53405488e-02,
          2.33436212e-01, 4.88036349e-02, 0., 0., 2.71871295e-02,
          6.85963854e-02, 9.29498151e-02, 1.09781094e-01, 3.53492528e-01,
          1.79181948e-01, 4.60290238e-02, 6.67784661e-02, 2.56766468e-01,
          3.74966115e-02, 6.88432604e-02, 1.01300463e-01, 1.28410354e-01,
          2.30028450e-01, 4.91986498e-02, 0., 1.99507549e-01,
          2.62659714e-02, 9.98794585e-02, 2.32975483e-02, 7.47900158e-02,
          7.55172372e-02, 1.23270378e-01, 1.35059223e-01, 2.17175052e-01,
          8.81477445e-02, 1.23044595e-01, 1.18394971e-01, 2.32065961e-01,
          6.04330115e-02, 7.57867321e-02, 4.15951051e-02, 1.63151309e-01,
          1.11071803e-01, 1.10982873e-01, 1.12431854e-01, 2.54560709e-01 ]
      - [ 9.91562307e-02, 8.04889575e-03, 2.44116604e-01, 0.,
          3.45116332e-02, 0., 0., 0., 0., 7.21238852e-02, 3.27016294e-01,
          0., 0., 0., 0., 0., 3.07699651e-01, 1.18893184e-01,
          1.45509183e-01, 7.79083148e-02, 4.36872318e-02, 6.39525354e-02,
          5.50335012e-02, 4.88516912e-02, 2.18467042e-01, 5.97485192e-02,
          2.56966174e-01, 1.03418551e-01, 1.21446148e-01, 5.10025732e-02,
          7.20369667e-02, 6.36802539e-02, 1.07485361e-01, 0., 0.,
          9.19038877e-02, 2.74040937e-01, 1.82840049e-01, 1.19161405e-01,
          1.37309015e-01, 2.06873566e-01, 1.26831919e-01, 4.87835035e-02,
          7.37252086e-02, 2.00103909e-01, 1.25471309e-01, 4.61809300e-02,
          0., 2.58949429e-01, 1.80688098e-01, 1.19260639e-01,
          1.29874021e-01, 1.00704014e-01, 4.14425246e-02, 3.47148329e-02,
          9.13098827e-03, 1.76669568e-01, 1.05811082e-01, 6.10900149e-02,
          0., 3.57842445e-02, 1.34928197e-01, 1.20810606e-01,
          6.87589198e-02 ]
      - [ 1.43792987e-01, 1.30878806e-01, 1.24063410e-01, 1.64948300e-01,
          1.75245732e-01, 3.97540033e-02, 1.02734663e-01, 9.00460184e-02,
          1.74712256e-01, 1.49293125e-01, 2.01909617e-01, 1.89096391e-01,
          1.39168754e-01, 0., 0., 0., 1.41383871e-01, 1.01636939e-01, 0.,
          7.07449839e-02, 1.05192482e-01, 1.00900032e-01, 1.12334907e-01,
          1.44093156e-01, 1.36289015e-01, 1.08105451e-01, 8.68648067e-02,
          0., 1.49388716e-01, 2.13186026e-01, 1.78168550e-01,
          1.49070472e-01, 3.69106941e-02, 0., 3.50878872e-02,
          1.22584797e-01, 1.36486664e-01, 1.48376405e-01, 1.51666984e-01,
          8.17584246e-02, 5.33588417e-02, 7.74088278e-02, 8.72724727e-02,
          6.17049932e-02, 1.15662545e-01, 1.56544819e-01, 1.08365566e-01,
          9.66041237e-02, 1.69181123e-01, 1.64035231e-01, 1.43202066e-01,
          1.98110759e-01, 1.41423702e-01, 1.15873247e-01, 1.24842152e-01,
          1.33936673e-01, 1.33527994e-01, 1.33660004e-01, 1.18076183e-01,
          1.23973191e-01, 1.12656519e-01, 2.65298989e-02, 1.13824412e-01,
          1.72264561e-01 ]
      - [ 1.15772694e-01, 5.38633652e-02, 1.16505884e-01, 4.85711172e-02,
          5.08083589e-02, 0., 0., 6.13940954e-02, 3.05235624e-01,
          1.20746545e-01, 6.63207769e-02, 1.44226596e-01, 0.,
          4.12047878e-02, 1.88860409e-02, 6.08966090e-02, 1.41122073e-01,
          9.78567675e-02, 1.26922876e-01, 2.82309502e-01, 9.77663100e-02,
          9.64888036e-02, 5.76606989e-02, 0., 0., 1.25603909e-02,
          2.42224019e-02, 2.93677896e-01, 1.71903074e-01, 1.77324548e-01,
          1.79299369e-01, 1.26083001e-01, 0., 2.32783817e-02,
          9.65580866e-02, 8.72753412e-02, 1.98843136e-01, 1.54409334e-01,
          1.66026875e-01, 1.39524341e-01, 4.02070396e-02, 6.56661466e-02,
          9.19670090e-02, 1.44815519e-01, 8.79644677e-02, 1.34997919e-01,
          1.34308532e-01, 6.31351694e-02, 1.96422264e-01, 1.84949324e-01,
          1.89720228e-01, 1.50157735e-01, 9.94710773e-02, 0.,
          4.27360013e-02, 1.37297258e-01, 1.84544086e-01, 1.37544140e-01,
          1.41431540e-01, 1.11671329e-01, 2.64279209e-02, 0., 0.,
          1.41030073e-01 ]
      - [ 8.37858170e-02, 1.24775721e-02, 7.69950002e-02, 1.13065824e-01,
          1.27170563e-01, 2.04210922e-01, 8.35089907e-02, 8.46513361e-02,
          1.35875151e-01, 1.11861520e-01, 2.25777999e-01, 1.89235687e-01,
          0., 0., 0., 0., 1.27061799e-01, 1.50161177e-01, 8.81635398e-02,
          0., 0., 8.65177140e-02, 1.02096185e-01, 1.00201309e-01,
          9.54908654e-02, 7.46983290e-02, 5.56504391e-02, 0.,
          1.72039673e-01, 1.91024572e-01, 2.49783501e-01, 1.37202114e-01,
          0., 0., 0., 1.95135474e-01, 1.70618296e-01, 1.95374489e-01,
          1.21190421e-01, 1.14854343e-01, 1.15276061e-01, 7.88521245e-02,
          9.42075402e-02, 6.56469092e-02, 1.72039852e-01, 2.41233185e-01,
          1.93774924e-02, 0., 1.90983266e-01, 1.95400268e-01,
          1.86555371e-01, 1.15124635e-01, 3.06921322e-02, 9.63635072e-02,
          1.80780724e-01, 1.92452565e-01, 1.39373899e-01, 1.06518470e-01,
          8.57629925e-02, 8.20318609e-02, 5.19698299e-02, 0.,
          5.54482900e-02, 1.93482131e-01 ]
      - [ 1.26117453e-01, 3.10573932e-02, 1.37909964e-01, 6.90546855e-02,
          7.83686116e-02, 6.58360571e-02, 5.81464022e-02, 3.82022783e-02,
          3.00345242e-01, 1.12453058e-01, 7.88977668e-02, 1.11879319e-01,
          0., 2.15938035e-02, 3.74253094e-02, 0., 1.67419359e-01,
          9.47515666e-02, 1.22849166e-01, 2.30419427e-01, 1.92845762e-01,
          9.50601250e-02, 1.12187050e-01, 0., 3.83044127e-03,
          2.56157038e-03, 3.04359347e-02, 1.34710416e-01, 3.19151878e-01,
          1.76892906e-01, 1.65590316e-01, 1.46635145e-01, 0.,
          7.24521559e-03, 3.38295400e-02, 8.35702196e-02, 1.84006065e-01,
          1.52865127e-01, 1.64519385e-01, 1.38137311e-01, 8.53603631e-02,
          8.98965225e-02, 2.91465912e-02, 1.39680266e-01, 1.40992403e-01,
          8.67490023e-02, 1.27866149e-01, 1.19471043e-01, 2.04623759e-01,
          1.90517992e-01, 1.67070389e-01, 1.84590772e-01, 0., 0., 0.,
          9.74943936e-02, 1.95952907e-01, 1.37663946e-01, 1.40866920e-01,
          1.09921090e-01, 3.75565439e-02, 0., 0., 9.86846462e-02 ]
      - [ 1.56694353e-01, 9.37532410e-02, 1.28846690e-01, 7.01405481e-02,
          1.42421842e-01, 8.28919262e-02, 6.79466501e-02, 9.11355391e-02,
          3.93500999e-02, 1.52862072e-01, 1.79765120e-01, 1.36975348e-01,
          0., 0., 0., 0., 1.72098041e-01, 1.71245396e-01, 1.07249916e-02,
          1.36343896e-01, 9.64226872e-02, 9.30646062e-02, 9.48274136e-02,
          1.25640720e-01, 9.96060148e-02, 1.54008269e-01, 1.71619087e-01,
          9.98193845e-02, 1.99574411e-01, 1.60198897e-01, 1.43145144e-01,
          1.70383364e-01, 6.23028399e-03, 8.35487396e-02, 1.55149519e-01,
          0., 2.89507240e-01, 1.46978915e-01, 7.60236904e-02,
          5.02482988e-02, 6.66622669e-02, 1.75836429e-01, 3.01922292e-01,
          0., 1.28446683e-01, 8.53937194e-02, 5.97982369e-02,
          5.17829694e-02, 1.16365768e-01, 1.10306621e-01, 2.76086926e-01,
          1.14016265e-01, 1.35589212e-01, 4.93267141e-02, 1.11136474e-02,
          0., 1.46376401e-01, 1.97742507e-02, 5.94261214e-02, 0.,
          1.86587363e-01, 9.79962423e-02, 8.17605406e-02, 8.31012875e-02 ]
      - [ 3.48608904e-02, 3.22370790e-02, 1.22211941e-01, 1.30144939e-01,
          1.69711620e-01, 1.26780644e-01, 1.03589803e-01, 7.59012699e-02,
          9.33675319e-02, 1.86068788e-01, 1.90021545e-01, 1.71737656e-01,
          0., 0., 0., 0., 1.97046265e-01, 1.80217072e-01, 0., 0., 0.,
          6.32367730e-02, 1.06989510e-01, 1.54088855e-01, 1.53279096e-01,
          0., 0., 0., 1.58263758e-01, 1.77328929e-01, 1.59944877e-01,
          1.59673274e-01, 0., 7.84773603e-02, 8.86285827e-02, 0.,
          2.89039344e-01, 4.98035252e-02, 7.12607056e-02, 5.89982346e-02,
          6.47578910e-02, 3.43368381e-01, 2.15371754e-02, 0.,
          1.48825601e-01, 0., 6.72324523e-02, 0., 1.98344126e-01,
          2.84373641e-01, 9.86616910e-02, 1.37467220e-01, 2.00345024e-01,
          0., 3.06362305e-02, 0., 1.25745326e-01, 6.72645196e-02,
          8.60685557e-02, 1.89851969e-01, 1.78308427e-01, 0.,
          6.52920529e-02, 8.01041871e-02 ]
      - [ 0., 0., 1.12107648e-02, 7.01784268e-02, 1.40277818e-01,
          1.00008458e-01, 1.29353181e-01, 3.11270326e-01, 8.98066163e-02,
          7.58926272e-02, 3.00031960e-01, 1.15823328e-01, 5.84485494e-02,
          0., 3.89765278e-02, 4.42389399e-02, 0., 0., 0., 0.,
          3.91629823e-02, 0., 9.92937479e-03, 9.16874260e-02,
          6.57446235e-02, 0., 0., 0., 6.83644339e-02, 0., 1.33986518e-01,
          4.13366944e-01, 6.46755323e-02, 7.02112820e-03, 2.17002686e-02,
          9.08279270e-02, 1.26765281e-01, 0., 7.28211179e-02,
          3.73740584e-01, 1.29785955e-01, 1.31214902e-01, 6.95980415e-02,
          0., 3.73404361e-02, 0., 9.92937479e-03, 8.33120719e-02,
          8.31926465e-02, 5.34956306e-02, 1.00246057e-01, 2.96972752e-01,
          0., 0., 5.24471030e-02, 7.91107193e-02, 6.14414178e-02, 0., 0.,
          0., 7.46849775e-02, 1.06640875e-01, 1.48772091e-01,
          3.72018605e-01 ]
      - [ 1.39789075e-01, 1.50304856e-02, 3.36582251e-02, 1.01012424e-01,
          1.29827499e-01, 6.12603389e-02, 1.16160445e-01, 4.50006239e-02,
          8.60224739e-02, 7.91517049e-02, 1.68213755e-01, 1.70720100e-01,
          0., 0., 0., 0., 1.54788807e-01, 1.72618970e-01, 1.55824661e-01,
          4.80140410e-02, 1.07035674e-01, 1.16543673e-01, 1.06798545e-01,
          1.48444042e-01, 1.17828213e-01, 1.31365150e-01, 1.42814055e-01,
          1.67149335e-01, 2.01983988e-01, 1.26008511e-01, 1.43806815e-01,
          1.96103960e-01, 0., 9.91115626e-03, 3.70014831e-02,
          1.57900646e-01, 2.16432810e-01, 1.66873112e-01, 1.92617580e-01,
          1.56805858e-01, 1.20346867e-01, 1.50835291e-01, 1.22229531e-01,
          1.36317819e-01, 7.98892155e-02, 1.58756539e-01, 2.03740016e-01,
          0., 1.54671624e-01, 2.03656703e-01, 1.98642924e-01,
          5.04028834e-02, 0., 0., 8.91583860e-02, 1.55796036e-01,
          1.84464931e-01, 6.71885386e-02, 0., 0., 4.71456721e-02, 0.,
          1.28110737e-01, 1.55313820e-01 ]
      - [ 1.42527029e-01, 1.10168979e-02, 2.94999480e-02, 1.37043968e-01,
          1.56445697e-01, 6.22752942e-02, 5.36753982e-02, 6.18746541e-02,
          6.41933903e-02, 1.67407498e-01, 1.23775497e-01, 1.28559336e-01,
          0., 0., 0., 0., 2.79013626e-02, 3.39585841e-01, 7.20863268e-02,
          4.76030707e-02, 2.97758192e-01, 1.11682408e-01, 7.66401812e-02,
          0., 1.20542511e-01, 2.87228465e-01, 0., 0., 3.66815358e-01,
          1.82666183e-01, 8.70320499e-02, 6.25465885e-02, 0.,
          2.53111184e-01, 1.06536634e-01, 1.07722193e-01, 7.12231994e-02,
          4.60417792e-02, 7.86767080e-02, 5.92042059e-02, 0.,
          3.36881787e-01, 4.66123559e-02, 0., 0., 0., 0., 0., 0.,
          2.90870786e-01, 4.15688753e-02, 0., 0., 0., 0., 0.,
          1.34349748e-01, 1.66027412e-01, 0., 0., 4.83154804e-02, 0., 0.,
          0. ]
      - [ 1.53687924e-01, 1.51691735e-02, 0., 0., 2.49836266e-01,
          1.18062347e-01, 4.87283207e-02, 9.67860594e-02, 1.47740215e-01,
          2.40714207e-01, 7.66342655e-02, 9.29180384e-02, 2.23652214e-01,
          5.34326322e-02, 1.50795002e-02, 0., 1.34843037e-01,
          3.09003860e-01, 1.93151921e-01, 0., 1.44009262e-01,
          1.16342515e-01, 6.38009310e-02, 6.63727298e-02, 6.86909258e-02,
          2.01137289e-01, 9.94038805e-02, 0., 3.23561430e-01,
          1.23123147e-01, 8.08260590e-02, 8.58472511e-02, 2.18203336e-01,
          1.98073730e-01, 7.57094398e-02, 7.80981258e-02, 1.62063614e-01,
          1.11622542e-01, 7.62015134e-02, 5.16250506e-02, 2.22178176e-01,
          2.84343719e-01, 1.50855286e-02, 0., 0., 0., 0., 0., 0.,
          2.40840629e-01, 0., 0., 0., 0., 0., 0., 1.44715428e-01,
          1.74031332e-02, 0., 0., 5.07211909e-02, 0., 0., 0. ]
      - [ 0., 0., 9.28189233e-02, 1.90181792e-01, 1.74922884e-01,
          6.59391880e-02, 6.68656081e-02, 1.29650056e-01, 2.70984918e-01,
          9.97255072e-02, 1.62331909e-01, 1.85193181e-01, 1.27729729e-01,
          9.10674483e-02, 0., 6.98463321e-02, 8.03335905e-02,
          8.32459331e-02, 1.40972257e-01, 1.90253660e-01, 2.06819996e-02,
          1.09324306e-01, 1.50614111e-02, 2.86320280e-02, 4.62463573e-02,
          4.34785476e-03, 6.09537140e-02, 1.98325232e-01, 1.98181897e-01,
          1.83943659e-01, 2.23468482e-01, 1.59292400e-01, 4.13639992e-02,
          0., 0., 1.36197820e-01, 1.49291202e-01, 1.07840873e-01,
          1.08077399e-01, 8.94225836e-02, 8.86380374e-02, 1.02024265e-01,
          9.90188047e-02, 1.01398766e-01, 1.33306861e-01, 0.,
          8.69570952e-03, 2.86320280e-02, 2.09937751e-01, 1.87528417e-01,
          1.88036323e-01, 1.07574403e-01, 3.33953090e-02, 1.57473519e-01,
          1.80755913e-01, 2.00000361e-01, 1.07250348e-01, 5.53748123e-02,
          4.71911654e-02, 1.15703568e-01, 1.34806663e-01, 3.37651223e-02,
          5.24930581e-02, 2.02695832e-01 ]
      - [ 0., 2.20990442e-02, 1.21453255e-01, 2.90380031e-01,
          1.15827754e-01, 8.06389078e-02, 1.43277362e-01, 1.41327396e-01,
          3.01628798e-01, 6.53237626e-02, 1.74252093e-01, 3.47569227e-01,
          0., 0., 0., 0., 3.63003910e-01, 4.69560139e-02, 0., 0.,
          5.00199981e-02, 2.91192885e-02, 1.52679440e-02, 1.41755357e-01,
          6.76193759e-02, 2.52816100e-02, 0., 1.64451018e-01,
          6.75920472e-02, 9.22292247e-02, 1.07764289e-01, 1.52923465e-01,
          4.89668250e-02, 0., 0., 0., 3.73029411e-02, 7.10791796e-02,
          9.78436247e-02, 3.26623052e-01, 1.62351876e-01, 0., 0., 0.,
          4.89668250e-02, 0., 1.75164491e-02, 1.24391444e-01,
          1.24257781e-01, 8.87666345e-02, 1.02341481e-01, 1.54675156e-01,
          7.36562684e-02, 0., 8.58579576e-03, 6.30097464e-02, 0., 0., 0.,
          0., 0., 0., 3.51155363e-02, 3.42880577e-01 ]
      - [ 1.20177381e-01, 9.85463709e-02, 6.64687306e-02, 0.,
          2.73392405e-02, 4.59964685e-02, 1.74202174e-01, 1.85983807e-01,
          1.47988483e-01, 1.41866788e-01, 1.74580768e-01, 9.04753283e-02,
          0., 4.60143425e-02, 1.50095552e-01, 1.59053922e-01,
          1.63458169e-01, 1.27774715e-01, 1.37681469e-01, 1.74788550e-01,
          0., 6.52870387e-02, 8.61531645e-02, 9.40582380e-02,
          1.56842247e-01, 1.19548522e-01, 1.31404683e-01, 7.58217499e-02,
          1.50235802e-01, 1.63896725e-01, 1.61019877e-01, 1.45165130e-01,
          1.61804736e-01, 1.67278722e-01, 6.99954778e-02, 5.83352521e-02,
          1.72927588e-01, 1.22303180e-01, 1.86878830e-01, 1.53958783e-01,
          1.35626704e-01, 1.39079079e-01, 1.42686903e-01, 7.93925449e-02,
          7.53358155e-02, 9.92380977e-02, 1.06442742e-01, 1.12173237e-01,
          1.78391039e-01, 1.18162803e-01, 1.26399741e-01, 1.04282983e-01,
          5.48352487e-02, 0., 1.96054637e-01, 1.57190636e-01,
          1.21507078e-01, 9.67148095e-02, 6.51605949e-02, 0.,
          2.55735181e-02, 0., 2.04552799e-01, 1.48751095e-01 ]
      - [ 9.22926515e-02, 1.05710484e-01, 1.14261739e-01, 1.23820134e-01,
          1.47144824e-01, 1.07459411e-01, 1.38760194e-01, 1.62983775e-01,
          1.27886638e-01, 1.39987439e-01, 1.34746179e-01, 2.20749870e-01,
          1.35937542e-01, 1.03688776e-01, 9.73268300e-02, 1.27132729e-01,
          1.32013902e-01, 9.47777256e-02, 9.23406053e-03, 6.60802424e-02,
          1.09422378e-01, 8.65579993e-02, 1.17587097e-01, 1.24469481e-01,
          1.28922373e-01, 7.53814653e-02, 1.04379281e-01, 0.,
          1.16446689e-01, 2.14845017e-01, 1.56888217e-01, 1.49040744e-01,
          1.01918034e-01, 1.24085307e-01, 1.08165495e-01, 1.14230685e-01,
          1.07767090e-01, 1.50635391e-01, 1.42511025e-01, 1.67004317e-01,
          1.30856931e-01, 1.38708219e-01, 0., 0., 9.38823968e-02,
          1.15091778e-01, 1.25622094e-01, 1.55608043e-01, 1.56433910e-01,
          1.54090598e-01, 1.35879084e-01, 1.73179522e-01, 1.44655690e-01,
          1.07141696e-01, 1.34494126e-01, 1.32254153e-01, 1.01136312e-01,
          1.24523938e-01, 1.10191427e-01, 1.14998870e-01, 1.05016977e-01,
          2.44677067e-02, 1.23755731e-01, 1.47150800e-01 ]
      - [ 1.07324079e-01, 8.53445008e-03, 0., 0., 2.92142004e-01,
          9.58979800e-02, 7.80488849e-02, 4.31374460e-02, 1.83659270e-01,
          2.49853119e-01, 9.53215957e-02, 1.34388313e-01, 2.56255448e-01,
          0., 0., 0., 1.94616213e-01, 3.54710579e-01, 0., 9.68181994e-03,
          1.32285818e-01, 5.89092709e-02, 7.18476027e-02, 6.92670867e-02,
          0., 2.07799852e-01, 0., 0., 3.08420956e-01, 4.12420258e-02,
          9.68154669e-02, 2.21139845e-02, 1.84401751e-01, 8.93021077e-02,
          0., 1.71981320e-01, 1.27767771e-01, 4.15262245e-02,
          7.71042183e-02, 6.00467324e-02, 3.53805512e-01, 1.03633963e-01,
          1.31888529e-02, 0., 0., 0., 0., 0., 3.14161718e-01,
          7.22717419e-02, 4.18443605e-02, 0., 0., 0., 0., 0.,
          1.00119457e-01, 8.53445008e-03, 0., 0., 3.65935639e-02, 0., 0.,
          0. ]
      - [ 1.61593497e-01, 1.79012958e-02, 1.09659493e-01, 1.57011673e-01,
          1.17049836e-01, 7.32620060e-02, 1.43928137e-02, 5.53662032e-02,
          1.04964890e-01, 2.48996422e-01, 7.37075955e-02, 1.25758365e-01,
          0., 0., 0., 0., 7.19017396e-03, 3.77827734e-01, 1.64068881e-02,
          1.86921343e-01, 2.49121085e-01, 6.03206791e-02, 8.33751559e-02,
          0., 0., 2.59020209e-01, 0., 1.31521016e-01, 3.82505357e-01,
          6.61944970e-02, 8.49752426e-02, 8.11426640e-02, 0.,
          1.94333330e-01, 8.66992846e-02, 7.12761432e-02, 6.10655695e-02,
          8.43237564e-02, 1.77995060e-02, 6.18745424e-02, 9.72794294e-02,
          2.73700446e-01, 0., 0., 0., 0., 0., 0., 0., 3.14990997e-01,
          2.18141712e-02, 0., 0., 0., 0., 0., 1.50998726e-01,
          2.13584617e-01, 0., 0., 5.38063347e-02, 0., 0., 0. ]
      - [ 2.08695069e-01, 8.46621245e-02, 0., 0., 3.75120379e-02, 0., 0.,
          1.55033931e-01, 2.11131096e-01, 2.00989693e-01, 1.62721589e-01,
          0., 0., 0., 0., 1.02770515e-01, 2.63655037e-01, 2.49288559e-01,
          6.29038364e-02, 0., 3.19924429e-02, 5.81753924e-02,
          7.11817592e-02, 0., 2.08274141e-01, 2.50580221e-01,
          8.20277780e-02, 1.65998220e-01, 1.20678030e-01, 1.32175088e-01,
          1.33419752e-01, 1.80655137e-01, 0., 1.25516066e-02,
          1.45434216e-01, 2.05983728e-01, 1.51719838e-01, 1.68652207e-01,
          1.31676629e-01, 9.56943557e-02, 9.68556665e-03, 1.49567112e-01,
          2.32612744e-01, 9.90509689e-02, 0., 0., 9.70151797e-02,
          4.78349924e-02, 0., 2.65520364e-01, 2.47611806e-01, 0., 0., 0.,
          4.80841361e-02, 0., 1.40045330e-01, 1.29635647e-01,
          1.17352769e-01, 0., 7.12799951e-02, 6.80666268e-02, 0., 0. ]
      - [ 9.11652595e-02, 1.89500991e-02, 7.01114163e-02, 2.78374106e-01,
          8.27448592e-02, 9.56432894e-02, 8.20401162e-02, 1.48019999e-01,
          2.08344847e-01, 1.01331934e-01, 1.42288610e-01, 2.81141639e-01,
          0., 0., 0., 0., 3.18962693e-01, 2.39081159e-01, 0.,
          1.01184241e-01, 6.37914538e-02, 4.56415042e-02, 7.37088025e-02,
          7.84215480e-02, 2.24192291e-01, 8.84297863e-02, 7.00843930e-02,
          2.73157716e-01, 7.38173649e-02, 0., 9.98275504e-02,
          1.42621979e-01, 0., 4.12729047e-02, 0., 1.22894511e-01,
          7.23586306e-02, 5.10516725e-02, 9.99751315e-02, 8.63517225e-02,
          3.61808091e-01, 4.32422832e-02, 0., 0., 0., 0., 0., 0.,
          3.70485187e-01, 4.59668450e-02, 9.38776731e-02, 1.33544907e-01,
          0., 0., 0., 0., 8.64737183e-02, 4.02682684e-02, 0.,
          7.32738338e-03, 3.22761461e-02, 0., 0., 0. ]
      - [ 1.36464402e-01, 8.12123343e-02, 5.54561578e-02, 5.20700514e-02,
          3.54203433e-02, 0., 1.19177230e-01, 1.46990553e-01,
          1.31469011e-01, 1.62261784e-01, 2.01983288e-01, 0., 0.,
          7.25803226e-02, 9.08064023e-02, 8.59372094e-02, 1.55186012e-01,
          1.57206476e-01, 1.52039453e-01, 1.57169849e-01, 1.62389815e-01,
          1.02579184e-01, 9.68627632e-02, 9.23577175e-02, 9.44244787e-02,
          6.78867474e-02, 1.41551897e-01, 2.10049525e-01, 1.91194057e-01,
          1.79321483e-01, 1.51061937e-01, 1.31748229e-01, 1.33090287e-01,
          1.28113165e-01, 1.30893186e-01, 0., 1.56156018e-01,
          1.45599335e-01, 1.40111044e-01, 1.44896269e-01, 1.59217954e-01,
          1.41718239e-01, 3.13128643e-02, 0., 1.27456352e-01,
          1.00336947e-01, 9.56131741e-02, 9.43010300e-02, 1.56499147e-01,
          1.64699703e-01, 1.84847862e-01, 1.83504984e-01, 6.69792891e-02,
          1.06354199e-01, 9.66990814e-02, 9.19182897e-02, 1.60702184e-01,
          1.25684604e-01, 1.33436918e-01, 1.39897823e-01, 3.54203433e-02,
          0., 1.01015933e-01, 1.29939780e-01 ]
      - [ 1.89372167e-01, 1.73302665e-02, 0., 0., 6.55811056e-02,
          8.74939188e-02, 5.47667965e-02, 8.99095237e-02, 2.53842361e-02,
          1.00038260e-01, 1.04970016e-01, 0., 0., 0., 0., 0.,
          1.07399754e-01, 6.59577027e-02, 3.52942377e-01, 0.,
          2.90496916e-01, 1.46642148e-01, 6.62959218e-02, 7.36246407e-02,
          0., 7.95844495e-02, 3.27038229e-01, 1.08599372e-01,
          3.79003376e-01, 1.37252748e-01, 7.34346882e-02, 0., 0.,
          2.88476437e-01, 1.14245512e-01, 9.42846835e-02, 1.01496372e-02,
          1.25396311e-01, 7.35163763e-02, 9.07783583e-02, 0.,
          2.88088441e-01, 2.14977175e-01, 0., 0., 0., 0., 0., 0.,
          1.07580706e-01, 2.33869582e-01, 0., 0., 0., 0., 0.,
          1.77030861e-01, 2.31938642e-02, 6.26559108e-02, 0.,
          6.39910251e-02, 0., 0., 0. ]
      - [ 1.32440969e-01, 1.07480094e-01, 1.11357719e-01, 1.28092274e-01,
          8.57465565e-02, 0., 9.58712399e-02, 1.89556852e-01,
          1.58894002e-01, 1.41735137e-01, 1.26942828e-01, 1.84015974e-01,
          9.32047069e-02, 8.04546028e-02, 1.26276404e-01, 1.62702233e-01,
          0., 0., 0., 0., 7.97795430e-02, 1.02611765e-01, 1.25286564e-01,
          1.75476402e-01, 1.46326676e-01, 1.15687564e-01, 7.40470141e-02,
          0., 1.27507016e-01, 1.46692201e-01, 1.70294479e-01,
          2.43086338e-01, 3.73797230e-02, 4.30406863e-03, 1.17092831e-02,
          1.62060335e-01, 1.85437337e-01, 1.93313569e-01, 1.87941492e-01,
          1.11818733e-02, 7.78212547e-02, 4.17179205e-02, 8.50972757e-02,
          1.19600102e-01, 1.57548815e-01, 1.69951245e-01, 1.02904342e-01,
          7.08259493e-02, 1.88238502e-01, 1.48821637e-01, 2.14424461e-01,
          1.64759800e-01, 1.25539571e-01, 0., 5.57175763e-02,
          1.20344117e-01, 1.73677281e-01, 1.06643453e-01, 1.31499112e-01,
          1.61370441e-01, 0., 0., 4.96991072e-03, 1.56795159e-01 ]
      - [ 2.47541457e-01, 7.03608245e-02, 0., 0., 3.10588926e-02, 0.,
          3.85433510e-02, 1.51185200e-01, 1.94741979e-01, 2.15798706e-01,
          1.67070851e-01, 5.88429682e-02, 0., 0., 0., 1.09778039e-01,
          2.60196984e-01, 1.23921186e-01, 7.58935958e-02, 8.46690461e-02,
          0., 7.36131594e-02, 0., 1.02396533e-01, 2.92427629e-01,
          6.89888373e-02, 6.59366371e-03, 1.34511814e-01, 1.59217224e-01,
          1.28739998e-01, 1.47258267e-01, 1.92478225e-01, 0.,
          1.36960335e-02, 1.53740704e-01, 1.77910462e-01, 1.72271743e-01,
          1.55312076e-01, 1.29722372e-01, 1.28537148e-01, 0.,
          1.67772114e-01, 2.28097945e-01, 0., 0., 0., 9.54972208e-02,
          1.07271202e-01, 1.05400927e-01, 2.80662209e-01, 2.26340652e-01,
          0., 0., 0., 6.93725124e-02, 6.11057431e-02, 1.29958600e-01,
          1.85595125e-01, 8.41664523e-02, 0., 8.19610953e-02, 0.,
          3.69444676e-02, 0. ]
      - [ 0., 2.06443407e-02, 7.14724287e-02, 3.26966971e-01,
          1.12139091e-01, 7.19416291e-02, 9.81864855e-02, 6.84183314e-02,
          3.01923245e-01, 1.03332169e-01, 1.31907582e-01, 3.43568027e-01,
          0., 0., 0., 0., 3.81004453e-01, 8.70249420e-02, 0., 0.,
          7.95227960e-02, 2.61354093e-02, 8.91543329e-02, 9.54619423e-02,
          1.69357553e-01, 0., 5.75373620e-02, 1.98382750e-01,
          1.03202172e-01, 5.19340187e-02, 8.97952467e-02, 1.15464807e-01,
          6.28099442e-02, 0., 2.39893422e-02, 0., 8.11383724e-02,
          9.84647274e-02, 8.94129723e-02, 2.67076612e-01, 2.60835946e-01,
          6.22450281e-03, 0., 0., 2.96088923e-02, 0., 8.80277622e-03,
          5.89882471e-02, 2.66848534e-01, 7.76424184e-02, 1.07219823e-01,
          7.78576285e-02, 0., 0., 0., 0., 0., 0., 0., 0., 0., 0.,
          7.86431227e-03, 2.60434419e-01 ]
      - [ 1.37612641e-01, 4.58149752e-03, 5.80689907e-02, 1.34174332e-01,
          1.97566688e-01, 1.05209544e-01, 3.53985168e-02, 6.12125099e-02,
          7.94201419e-02, 2.40066826e-01, 8.36159140e-02, 1.18542127e-01,
          1.27969980e-01, 4.55156900e-02, 0., 0., 1.12868257e-01,
          3.45546156e-01, 2.75747515e-02, 0., 2.33747423e-01,
          1.14105016e-01, 7.84318596e-02, 5.77277355e-02, 8.21973979e-02,
          2.67702281e-01, 0., 0., 3.44748527e-01, 1.58048317e-01,
          8.01885054e-02, 5.15949689e-02, 0., 2.23200619e-01,
          8.49682391e-02, 7.48621821e-02, 1.34194210e-01, 6.06484935e-02,
          7.63929263e-02, 6.69911057e-02, 5.44834929e-03, 3.37305605e-01,
          0., 0., 0., 0., 0., 0., 0., 3.21462989e-01, 0., 0., 0., 0., 0.,
          0., 1.28922626e-01, 1.70856819e-01, 0., 0., 4.62307781e-02, 0.,
          0., 0. ]
      - [ 1.24926336e-01, 0., 0., 0., 2.66149223e-01, 1.02366090e-01,
          1.07423976e-01, 9.19892266e-02, 4.84414548e-02, 2.29125887e-01,
          9.71412361e-02, 1.11009158e-01, 2.46056736e-01, 1.11503750e-02,
          4.34803404e-03, 0., 1.18152477e-01, 3.76516312e-01,
          4.30054776e-02, 0., 2.03664646e-01, 8.86623710e-02,
          7.28719011e-02, 0., 5.88054992e-02, 2.67609864e-01, 0., 0.,
          3.18459272e-01, 1.05806693e-01, 7.59124085e-02, 4.80814241e-02,
          2.83130765e-01, 1.53750300e-01, 7.38506019e-02, 1.04940489e-01,
          6.63358793e-02, 9.64192748e-02, 7.92281032e-02, 6.98061809e-02,
          3.09575945e-01, 1.92205444e-01, 0., 0., 0., 0., 0., 0.,
          6.86501414e-02, 1.98638961e-01, 0., 0., 0., 0., 0., 0.,
          1.17650621e-01, 8.69606808e-03, 0., 0., 4.26387936e-02, 0., 0.,
          0. ]
      - [ 1.72411695e-01, 1.51120508e-02, 0., 0., 2.17755422e-01,
          9.96849313e-02, 6.94416240e-02, 4.53431457e-02, 1.15486518e-01,
          1.20531149e-01, 9.06609893e-02, 1.29937679e-01, 1.61380485e-01,
          0., 0., 0., 1.46934286e-01, 3.39061677e-01, 1.49514332e-01, 0.,
          2.65319347e-01, 6.58988729e-02, 6.66081682e-02, 5.94513640e-02,
          0., 3.24281514e-01, 0., 0., 3.64494115e-01, 3.98690924e-02,
          7.51087964e-02, 5.64534329e-02, 2.04616249e-01, 1.10503547e-01,
          6.85233027e-02, 1.06246158e-01, 7.33527616e-02, 9.86999944e-02,
          7.01010451e-02, 4.34393547e-02, 2.59599537e-01, 2.38293022e-01,
          0., 0., 0., 0., 0., 0., 1.41377598e-01, 2.55611211e-01, 0., 0.,
          0., 0., 0., 0., 1.64421976e-01, 6.99151531e-02, 0., 0.,
          5.78344427e-02, 0., 0., 0. ]
      - [ 1.77375689e-01, 1.46320239e-01, 2.95527820e-02, 0.,
          3.97909544e-02, 0., 8.62880517e-03, 1.32889837e-01,
          1.58847913e-01, 1.81344450e-01, 1.51217192e-01, 0., 0., 0.,
          4.00154553e-02, 1.28409892e-01, 1.84203938e-01, 1.06530234e-01,
          1.37271062e-01, 1.32974029e-01, 1.24683887e-01, 8.56726021e-02,
          1.05932236e-01, 1.05155505e-01, 1.59494460e-01, 1.43473372e-01,
          1.10309526e-01, 1.56915247e-01, 1.68242246e-01, 1.19706988e-01,
          1.36444137e-01, 1.47059485e-01, 6.22690059e-02, 7.13371113e-03,
          0., 1.46662518e-01, 1.71739668e-01, 2.19030768e-01,
          1.70783445e-01, 1.60090193e-01, 9.94795710e-02, 4.32489142e-02,
          1.35633811e-01, 1.41510114e-01, 9.86578837e-02, 1.50284216e-01,
          1.53528318e-01, 1.27793863e-01, 1.06359169e-01, 2.55120307e-01,
          2.00837821e-01, 1.13296315e-01, 1.27299845e-01, 4.75167558e-02,
          5.12464046e-02, 3.39164808e-02, 1.29346326e-01, 8.56491774e-02,
          2.26542339e-01, 8.84113982e-02, 1.36300430e-01, 3.86581905e-02,
          0., 0. ]
      - [ 1.27249718e-01, 0., 0., 0., 9.30177495e-02, 1.70431793e-01,
          1.42527800e-02, 8.77730250e-02, 5.49914641e-03, 2.31377512e-01,
          0., 8.41256306e-02, 0., 0., 0., 0., 6.84740916e-02,
          1.46426305e-01, 8.40329453e-02, 1.62937328e-01, 2.46316358e-01,
          1.57379091e-01, 1.69655159e-01, 0., 7.03547671e-02,
          1.04336582e-01, 1.17358997e-01, 1.20977499e-01, 2.75286108e-01,
          2.42650062e-01, 1.84718102e-01, 1.87977552e-01, 0.,
          1.84968505e-02, 7.88036063e-02, 1.83409587e-01, 1.65277466e-01,
          1.39218405e-01, 9.69048813e-02, 0., 1.19748406e-01,
          9.64036509e-02, 1.14593804e-01, 1.36714146e-01, 1.39688894e-01,
          1.84930116e-01, 5.63516244e-02, 2.71838903e-02, 2.31501684e-01,
          1.79532066e-01, 1.66966513e-01, 3.33833732e-02, 3.37706394e-02,
          0., 2.78481711e-02, 1.95916459e-01, 2.39250615e-01,
          1.05078623e-01, 7.41362572e-02, 0., 4.25962061e-02, 0., 0.,
          1.23130947e-01 ]
      - [ 1.17916301e-01, 6.90870211e-02, 7.23342746e-02, 0.,
          1.58820793e-01, 2.10334942e-01, 7.78646767e-02, 7.63541237e-02,
          1.79399624e-02, 2.79577255e-01, 3.96967120e-02, 5.72351292e-02,
          4.54323143e-02, 1.34589255e-01, 7.57221952e-02, 0.,
          1.04127660e-01, 8.97659510e-02, 1.14806786e-01, 1.39356270e-01,
          2.48562828e-01, 1.30124852e-01, 8.37446526e-02, 0., 0., 0.,
          6.91489801e-02, 9.79133099e-02, 2.71881521e-01, 2.31401742e-01,
          2.35553741e-01, 4.11350392e-02, 0., 3.56255360e-02,
          5.71814217e-02, 1.63843364e-01, 1.85177520e-01, 1.29110366e-01,
          1.14739455e-01, 6.69879019e-02, 6.70846999e-02, 8.20505545e-02,
          1.03895381e-01, 1.37119934e-01, 1.19066633e-01, 2.11674854e-01,
          1.93906296e-02, 0., 2.16045558e-01, 1.62551776e-01,
          1.77790284e-01, 0., 2.83112582e-02, 0., 1.55616969e-01,
          1.95077762e-01, 1.79010779e-01, 1.08558401e-01, 9.03805569e-02,
          0., 3.34582031e-02, 0., 1.71178821e-02, 1.66924387e-01 ]
      - [ 1.53733477e-01, 1.47602148e-02, 0., 1.20424241e-01,
          1.22197941e-01, 8.86835307e-02, 6.28220066e-02, 4.58495952e-02,
          0., 2.68023998e-01, 0., 0., 0., 0., 0., 0., 7.73045793e-02,
          1.73435524e-01, 1.29416332e-01, 1.43471241e-01, 2.40095139e-01,
          1.23541579e-01, 2.36983951e-02, 0., 0., 1.72821835e-01,
          8.21144432e-02, 6.25104383e-02, 3.05639029e-01, 2.03311011e-01,
          1.65889144e-01, 7.77614862e-02, 9.72883776e-02, 2.04084795e-02,
          0., 1.20138064e-01, 1.97256193e-01, 1.67835742e-01,
          1.31310314e-01, 1.51905537e-01, 1.37407824e-01, 7.36351609e-02,
          6.62919581e-02, 1.59794778e-01, 1.56484991e-01, 1.50021687e-01,
          1.00742556e-01, 1.12486929e-01, 1.69002220e-01, 1.91709340e-01,
          2.01125920e-01, 1.35448232e-01, 0., 4.48842086e-02,
          1.00057207e-01, 9.73755792e-02, 1.95536211e-01, 1.63019851e-01,
          1.30466551e-01, 0., 5.16863652e-02, 0., 1.09120486e-02,
          1.38884082e-01 ]
      - [ 1.36763871e-01, 0., 0., 0., 8.90780240e-02, 1.39517516e-01,
          8.57679397e-02, 7.36155435e-02, 0., 2.00956151e-01,
          9.50898603e-02, 0., 0., 0., 0., 0., 5.51975798e-03,
          1.30726695e-01, 7.77636096e-02, 1.65218696e-01, 2.47398153e-01,
          1.60476714e-01, 1.46108374e-01, 8.19000900e-02, 6.58736601e-02,
          1.43109426e-01, 1.07457064e-01, 1.19111024e-01, 2.63296396e-01,
          2.29680389e-01, 2.10043535e-01, 2.01708689e-01, 0.,
          5.68804741e-02, 7.73337185e-02, 1.90369457e-01, 1.73481166e-01,
          1.17690034e-01, 1.10278279e-01, 9.30991694e-02, 5.82080446e-02,
          8.89431983e-02, 1.51101381e-01, 1.44153580e-01, 1.51091203e-01,
          1.89995989e-01, 1.39246341e-02, 0., 2.20768720e-01,
          2.10754484e-01, 1.74880773e-01, 0., 0., 0., 1.65720358e-02,
          1.85673535e-01, 2.27849215e-01, 1.58191487e-01, 0., 0.,
          4.55170907e-02, 0., 0., 8.37573782e-02 ]
      - [ 8.54278207e-02, 2.31740251e-02, 6.59279302e-02, 7.50707686e-02,
          1.89222455e-01, 9.64306146e-02, 7.88888633e-02, 7.36414716e-02,
          1.96377844e-01, 2.49135926e-01, 8.77454579e-02, 6.15897700e-02,
          1.92242801e-01, 8.24159831e-02, 4.31667045e-02, 6.62861392e-02,
          0., 1.80581525e-01, 9.10058618e-02, 6.35995939e-02,
          2.41537496e-01, 0., 1.79837029e-02, 0., 0., 0., 0., 0.,
          2.93999612e-01, 2.50204653e-01, 1.54352680e-01, 4.47835401e-02,
          0., 0., 0., 1.39599696e-01, 2.54043609e-01, 1.89873874e-01,
          9.86564085e-02, 8.51041079e-02, 8.50345641e-02, 9.63662118e-02,
          8.40141028e-02, 5.33505455e-02, 1.27842128e-01, 2.36746415e-01,
          4.24569957e-02, 0., 1.83080837e-01, 1.51748210e-01,
          1.54163092e-01, 1.24380007e-01, 0., 1.71886593e-01,
          1.52397737e-01, 1.45478025e-01, 1.37226626e-01, 9.44676995e-02,
          2.55980808e-02, 9.25918445e-02, 6.06846809e-02, 0.,
          1.15275048e-01, 1.53258830e-01 ]
      - [ 8.86316299e-02, 1.71462163e-01, 1.02520667e-01, 1.84502572e-01,
          1.21499494e-01, 8.79714862e-02, 6.36240914e-02, 4.29944359e-02,
          1.01518571e-01, 2.89162546e-01, 8.30560401e-02, 1.13580346e-01,
          1.13719270e-01, 8.13286230e-02, 3.42144072e-02, 6.88823462e-02,
          6.73746988e-02, 7.09267184e-02, 8.57210159e-02, 1.06639132e-01,
          2.67332613e-01, 1.46343037e-01, 5.19388020e-02, 0.,
          7.29077263e-03, 0., 0., 0., 3.09366643e-01, 1.99238524e-01,
          1.57717943e-01, 6.72006011e-02, 0., 5.13541093e-03,
          1.99114252e-02, 6.69417828e-02, 1.93216011e-01, 1.56401888e-01,
          1.46218807e-01, 1.38193190e-01, 8.89388099e-02, 9.07376856e-02,
          4.74874191e-02, 1.49230301e-01, 1.31691039e-01, 1.36364579e-01,
          1.44223094e-01, 1.42962933e-01, 1.80441737e-01, 1.64529011e-01,
          1.65950090e-01, 1.34251758e-01, 0., 3.45452093e-02,
          9.96283516e-02, 1.38674676e-01, 1.84442699e-01, 1.33173183e-01,
          1.32082939e-01, 4.68836725e-02, 2.99183987e-02, 0.,
          4.22788300e-02, 1.65084898e-01 ]
      - [ 0., 2.12874472e-01, 1.26102924e-01, 1.21850401e-01,
          1.12259403e-01, 1.04053244e-01, 1.74491242e-01, 2.58703470e-01,
          1.81319535e-01, 3.26509476e-01, 1.07493468e-01, 7.51220435e-02,
          7.28437081e-02, 1.02626733e-01, 1.36599973e-01, 1.81609958e-01,
          0., 0., 0., 0., 4.53494638e-02, 0., 0., 1.78461209e-01,
          4.68367264e-02, 0., 0., 0., 0., 0., 1.25697821e-01,
          3.68066460e-01, 4.53494638e-02, 0., 0., 0., 0., 0.,
          6.45135865e-02, 7.40474984e-02, 0., 0., 0., 0., 4.53494638e-02,
          0., 9.84620862e-03, 1.18462957e-01, 1.27518013e-01,
          9.39333811e-02, 1.06975384e-01, 7.69855678e-02, 8.03094655e-02,
          1.09302573e-01, 1.39551610e-01, 3.76314670e-01, 0.,
          8.75465479e-03, 0., 0., 0., 0., 1.21415608e-01, 3.56300294e-01 ]
      - [ 1.15986966e-01, 1.09572858e-01, 1.03418469e-01, 6.40454143e-02,
          1.17519036e-01, 4.27071229e-02, 6.95590153e-02, 8.16874355e-02,
          1.03029981e-01, 1.53590798e-01, 1.61561668e-01, 0., 0., 0., 0.,
          0., 1.59888029e-01, 1.87199175e-01, 1.52120456e-01,
          1.38769627e-01, 1.16396792e-01, 1.12037450e-01, 1.25536099e-01,
          1.22314170e-01, 1.42358646e-01, 1.02006778e-01, 1.40501633e-01,
          2.54515022e-01, 1.60332575e-01, 1.41687155e-01, 1.60660356e-01,
          1.41681075e-01, 0., 7.61581725e-03, 0., 7.06706792e-02,
          1.88055664e-01, 1.53439194e-01, 1.60599872e-01, 1.24354444e-01,
          8.69678780e-02, 6.75115958e-02, 7.06241652e-02, 1.40490264e-01,
          1.52013883e-01, 1.13889694e-01, 1.43012568e-01, 1.27288058e-01,
          1.69351280e-01, 1.52357846e-01, 1.69926301e-01, 1.56498596e-01,
          1.24900237e-01, 1.28575206e-01, 1.35061085e-01, 1.01500034e-01,
          1.76392719e-01, 1.32327288e-01, 1.39429823e-01, 1.10903710e-01,
          3.94776054e-02, 0., 1.35734528e-01, 1.56610370e-01 ]
      - [ 1.67748168e-01, 1.62747297e-02, 0., 0., 7.52864480e-02,
          3.33165750e-02, 5.19591272e-02, 4.06774618e-02, 5.44178393e-03,
          7.06111267e-02, 4.01069634e-02, 0., 0., 0., 0., 0.,
          1.68324977e-01, 1.79319218e-01, 1.48766294e-01, 9.53176841e-02,
          1.68831110e-01, 1.56958953e-01, 1.18371114e-01, 1.25543833e-01,
          1.72265306e-01, 1.95387542e-01, 1.61051556e-01, 1.61470711e-01,
          1.68964699e-01, 1.79218650e-01, 1.61800310e-01, 1.62977353e-01,
          4.58478853e-02, 6.66136369e-02, 1.31611198e-01, 1.89714044e-01,
          3.18826824e-01, 1.33635536e-01, 1.03915088e-01, 4.66767065e-02,
          0., 8.52499679e-02, 2.01443240e-01, 2.41336912e-01,
          2.58784890e-01, 1.08961441e-01, 6.65151924e-02, 0.,
          7.50537813e-02, 1.36739716e-01, 2.45278567e-01, 7.73556009e-02,
          4.02038842e-02, 2.41401047e-02, 0., 0., 1.56792134e-01,
          5.52850328e-02, 1.57919511e-01, 7.77346641e-02, 5.65526746e-02,
          8.59528184e-02, 4.52177301e-02, 1.80576704e-02 ]
      - [ 1.48909971e-01, 1.65108014e-02, 0., 0., 5.05982265e-02,
          1.11329503e-01, 1.13095522e-01, 4.06040065e-02, 8.71086195e-02,
          1.55609235e-01, 0., 0., 0., 0., 0., 0., 0., 1.34405628e-01,
          1.19109571e-01, 1.37997091e-01, 2.53027320e-01, 1.37621462e-01,
          1.56221792e-01, 1.25339478e-01, 0., 1.53205931e-01,
          1.71595544e-01, 1.20561786e-01, 2.58954942e-01, 2.06966251e-01,
          2.04943493e-01, 1.97897136e-01, 4.70594019e-02, 1.03806164e-02,
          6.69391304e-02, 2.01238185e-01, 1.76223800e-01, 1.39676988e-01,
          1.35727972e-01, 0., 1.13797553e-01, 9.21756402e-02,
          1.71311900e-01, 1.55290738e-01, 7.82161281e-02, 1.79785624e-01,
          1.40651405e-01, 2.46313363e-02, 2.35245332e-01, 2.08006576e-01,
          1.66796133e-01, 3.70009057e-02, 0., 0., 2.44247876e-02,
          1.17709719e-01, 2.49022439e-01, 1.63176790e-01, 0., 0.,
          5.05982265e-02, 0., 0., 0. ]
      - [ 1.65519804e-01, 5.42033091e-02, 1.61358356e-01, 0.,
          7.26187676e-02, 0., 6.52315766e-02, 5.43556400e-02,
          2.93544233e-01, 1.15185849e-01, 6.15811124e-02, 9.78439301e-02,
          5.22006452e-02, 7.00201988e-02, 0., 5.30911312e-02,
          1.27875939e-01, 7.62545541e-02, 1.15185380e-01, 2.29163632e-01,
          2.34882936e-01, 1.23960428e-01, 8.19864720e-02, 0., 0.,
          1.02980975e-02, 6.27188385e-02, 1.77625388e-01, 2.98840016e-01,
          1.76129431e-01, 1.50600702e-01, 1.40495211e-01, 0.,
          7.21922424e-03, 4.53826226e-02, 5.94313182e-02, 1.83672801e-01,
          1.54550701e-01, 1.44764543e-01, 1.48797289e-01, 4.16712537e-02,
          6.55450970e-02, 8.77022743e-02, 6.34101108e-02, 1.26340300e-01,
          1.41305164e-01, 1.39896438e-01, 8.53535086e-02, 2.11884007e-01,
          1.73313245e-01, 1.88322127e-01, 1.60814658e-01, 5.39762899e-03,
          0., 3.86852548e-02, 1.31318718e-01, 1.56311601e-01,
          1.69831216e-01, 1.45928591e-01, 1.32626459e-01, 3.21227014e-02,
          0., 0., 9.61069912e-02 ]
      - [ 6.77963495e-02, 6.97465837e-02, 0., 0., 7.46143088e-02,
          1.21100500e-01, 1.95655420e-01, 1.62644610e-01, 1.48549601e-01,
          1.34440452e-01, 1.29783332e-01, 1.37750506e-01, 0.,
          7.87366852e-02, 1.61180779e-01, 1.63558140e-01, 1.43694386e-01,
          1.35298446e-01, 5.55438884e-02, 3.41291428e-02, 2.97767185e-02,
          2.56345794e-02, 1.63260370e-01, 1.88172087e-01, 7.89917260e-02,
          0., 4.14470173e-02, 1.10124163e-01, 1.44430861e-01,
          2.36685887e-01, 1.54978216e-01, 1.73761606e-01, 1.17995322e-01,
          0., 6.53432682e-02, 9.31983963e-02, 1.22763798e-01,
          1.31023094e-01, 1.54438928e-01, 1.49596110e-01, 1.91533387e-01,
          1.46033540e-01, 6.12827428e-02, 0., 1.85899157e-02,
          3.27445194e-02, 1.09046973e-01, 2.31053233e-01, 1.78229183e-01,
          1.64402053e-01, 1.43893108e-01, 1.51085302e-01, 1.73954815e-02,
          1.72214404e-01, 1.63417637e-01, 1.39863372e-01, 1.46183908e-01,
          9.24119726e-02, 5.72182126e-02, 0., 8.15464333e-02,
          8.42908919e-02, 1.67925254e-01, 1.58734143e-01 ]
      - [ 1.23548515e-01, 9.28914733e-03, 6.56399131e-02, 0.,
          1.63726583e-01, 1.20573938e-01, 1.20647512e-01, 7.10523725e-02,
          2.14144185e-01, 1.39551550e-01, 1.20092303e-01, 5.74425347e-02,
          7.49652013e-02, 8.32819864e-02, 0., 0., 9.40759405e-02,
          1.17899276e-01, 9.30663943e-02, 2.77553350e-01, 0.,
          1.69918880e-01, 1.44275501e-01, 0., 0., 1.35411434e-02,
          6.08070120e-02, 2.69339323e-01, 1.88106894e-01, 2.14234248e-01,
          1.84399232e-01, 1.77695468e-01, 0., 0., 7.84711987e-02,
          1.99239716e-01, 1.49813488e-01, 1.15943156e-01, 6.91116378e-02,
          0., 1.12961158e-01, 8.48562941e-02, 1.12459190e-01,
          1.36184305e-01, 1.45438775e-01, 1.69049472e-01, 0., 0.,
          2.07629442e-01, 1.93911344e-01, 1.75214574e-01, 0., 0., 0.,
          6.17857873e-02, 2.37659082e-01, 1.81751490e-01, 1.12843290e-01,
          1.03040360e-01, 0., 3.31401601e-02, 0., 0., 1.60521463e-01 ]
      - [ 0., 0., 9.85578746e-02, 2.00512871e-01, 3.52460481e-02,
          1.60872806e-02, 5.20642065e-02, 0., 3.01313967e-01,
          7.54036233e-02, 9.57777500e-02, 2.25395411e-01, 2.09015518e-01,
          6.95587546e-02, 5.77765033e-02, 0., 1.52550831e-01,
          7.94299394e-02, 9.12220553e-02, 1.94925129e-01, 2.33795252e-02,
          0., 9.41139273e-03, 4.01744284e-02, 5.22782058e-02,
          4.01303126e-03, 4.92320955e-02, 1.98918924e-01, 2.01049894e-01,
          2.01518461e-01, 1.47957012e-01, 8.80884603e-02, 4.67590503e-02,
          1.16998972e-02, 2.96322405e-02, 2.27503315e-01, 2.33337060e-01,
          1.39618948e-01, 1.06442615e-01, 1.12708740e-01, 6.49964064e-02,
          9.26589742e-02, 7.43008032e-02, 1.06488235e-01, 1.63535759e-01,
          1.01727054e-01, 1.36088515e-02, 4.01744284e-02, 1.89872459e-01,
          1.35827854e-01, 1.72040135e-01, 1.50852367e-01, 1.18130140e-01,
          1.83781728e-01, 1.41033694e-01, 1.52289927e-01, 7.47095346e-02,
          8.53356719e-02, 1.70389730e-02, 9.85539779e-02, 1.43252179e-01,
          6.89504221e-02, 9.54199359e-02, 1.66049913e-01 ]
      - [ 1.28532678e-01, 5.40446453e-02, 7.17594326e-02, 0.,
          6.90238029e-02, 2.19449654e-01, 6.21040352e-02, 9.21565071e-02,
          0., 2.96319902e-01, 3.39032076e-02, 4.73616682e-02,
          4.21659201e-02, 1.07373878e-01, 9.24596861e-02, 0.,
          3.36953835e-03, 1.32406160e-01, 1.27393052e-01, 7.81568736e-02,
          2.73623735e-01, 8.57023373e-02, 1.76947825e-02, 0., 0.,
          4.31077667e-02, 9.79518890e-02, 7.18927532e-02, 2.75378138e-01,
          2.51201659e-01, 2.04892039e-01, 5.47669120e-02, 0.,
          8.01415835e-03, 5.56802228e-02, 1.39734343e-01, 1.79909006e-01,
          2.06279978e-01, 1.55479237e-01, 1.11103632e-01, 1.91062689e-02,
          8.95238966e-02, 9.66402963e-02, 1.23666480e-01, 1.32175222e-01,
          1.38791010e-01, 2.00022191e-01, 3.84186469e-02, 1.81384549e-01,
          1.66651815e-01, 1.62306398e-01, 8.09434205e-02, 0.,
          5.99816591e-02, 1.81075469e-01, 1.24998018e-01, 1.93152398e-01,
          6.37233034e-02, 6.41690120e-02, 0., 4.36742082e-02, 0.,
          4.68839817e-02, 1.83329761e-01 ]
      - [ 1.98994517e-01, 1.20089017e-01, 8.82738829e-02, 0., 0., 0., 0.,
          0., 2.48524725e-01, 2.71047354e-01, 3.07064001e-02, 0., 0.,
          5.60173057e-02, 0., 1.11777283e-01, 6.60243109e-02,
          2.13395253e-01, 8.54829252e-02, 8.80335048e-02, 9.93171334e-02,
          1.18797079e-01, 1.51097849e-01, 2.05110963e-02, 4.39902619e-02,
          4.24318761e-03, 1.86393350e-01, 1.22851349e-01, 1.49587095e-01,
          1.67422831e-01, 1.72025174e-01, 1.20696686e-01, 1.61663160e-01,
          0., 0., 0., 7.09423199e-02, 1.52481273e-01, 1.68302953e-01,
          2.48029724e-01, 1.55608162e-01, 0., 0., 0., 1.42723257e-02, 0.,
          7.95611218e-02, 2.76887596e-01, 2.06777692e-01, 1.74649239e-01,
          1.14053950e-01, 1.37093633e-01, 7.10467324e-02, 0.,
          1.92622934e-02, 2.75518537e-01, 1.56322390e-01, 7.18156546e-02,
          4.54179384e-02, 6.02893792e-02, 7.33110234e-02, 7.74009451e-02,
          6.43097386e-02, 1.97439760e-01 ]
      - [ 1.66578904e-01, 9.97625291e-02, 8.99966061e-02, 9.12876651e-02,
          1.05838679e-01, 0., 3.69427577e-02, 1.55881301e-01,
          1.37190193e-01, 1.83727399e-01, 1.72422260e-01, 1.59839109e-01,
          0., 7.12216720e-02, 1.01317167e-01, 7.61957467e-02,
          1.35148495e-01, 1.39254525e-01, 1.34921446e-01, 1.35443598e-01,
          1.46982670e-01, 8.64944756e-02, 1.04211956e-01, 9.35409293e-02,
          1.32259250e-01, 1.05085760e-01, 8.25435072e-02, 1.78596959e-01,
          1.92772105e-01, 1.68307364e-01, 1.30734503e-01, 1.55113935e-01,
          1.31206959e-01, 1.19794562e-01, 7.47615620e-02, 1.20576784e-01,
          2.04672262e-01, 1.58878580e-01, 1.17011257e-01, 1.59406722e-01,
          1.61130846e-01, 1.00329988e-01, 3.41347158e-02, 1.39987931e-01,
          6.72536418e-02, 1.28635779e-01, 1.21685468e-01, 1.23639800e-01,
          1.59311548e-01, 1.54803365e-01, 1.41400456e-01, 1.26998290e-01,
          0., 1.11844145e-01, 9.92554650e-02, 1.25569105e-01,
          1.59841269e-01, 1.37927696e-01, 1.05427936e-01, 4.33185920e-02,
          3.62633355e-02, 0., 9.51938480e-02, 1.60602376e-01 ]
      - [ 1.16566494e-01, 0., 0., 0., 3.91603559e-02, 0., 6.73156604e-02,
          2.05865160e-01, 1.72999963e-01, 1.61227256e-01, 1.46559671e-01,
          0., 0., 0., 0., 0., 2.26059034e-01, 1.74050465e-01,
          1.65063024e-01, 7.64740705e-02, 0., 0., 6.69499412e-02,
          1.00995064e-01, 2.00042412e-01, 1.07954651e-01, 1.29297882e-01,
          1.12218104e-01, 1.44321084e-01, 1.70566335e-01, 1.63717166e-01,
          2.17197925e-01, 2.03844160e-01, 1.35869831e-01, 8.56176987e-02,
          9.55008864e-02, 1.62165880e-01, 1.46669850e-01, 1.40926644e-01,
          1.45103469e-01, 1.46782950e-01, 1.75557658e-01, 1.90081462e-01,
          6.93236962e-02, 8.05464238e-02, 5.56818545e-02, 8.76345858e-02,
          1.14598870e-01, 1.77254543e-01, 1.61291182e-01, 1.67825505e-01,
          1.09898135e-01, 0., 4.87986580e-03, 1.34844854e-01,
          1.54671565e-01, 2.07369342e-01, 8.26220661e-02, 0., 0.,
          3.91603559e-02, 0., 1.42518654e-01, 1.61666751e-01 ]
      - [ 8.72686058e-02, 1.06234597e-02, 0., 0., 4.49171811e-02,
          8.22070241e-02, 1.09519474e-01, 9.84628350e-02, 3.23852301e-01,
          1.12969182e-01, 4.37553935e-02, 1.10200331e-01, 0., 0., 0., 0.,
          4.18700844e-01, 4.42408696e-02, 3.40167247e-02, 2.96051875e-02,
          0., 0., 0., 1.27069697e-01, 1.82412252e-01, 0., 1.09664485e-01,
          1.76430613e-01, 9.17484537e-02, 6.20937087e-02, 1.15599677e-01,
          1.03611618e-01, 1.85360432e-01, 0., 0., 0., 2.51949936e-01,
          1.15075208e-01, 9.93733667e-03, 5.82541488e-02, 4.07497734e-01,
          1.15658380e-01, 1.26985148e-01, 8.82619470e-02, 0., 0., 0., 0.,
          3.94715637e-01, 3.72233167e-02, 8.44253078e-02, 7.79111460e-02,
          8.60929415e-02, 0., 0., 0., 8.15976635e-02, 1.06234597e-02, 0.,
          0., 3.09456140e-02, 9.68603790e-02, 9.50364843e-02, 0. ]
      - [ 1.58474103e-01, 1.72187127e-02, 0., 0., 5.40094189e-02,
          2.90090758e-02, 5.38904667e-02, 0., 5.19847497e-02,
          1.92435905e-01, 3.83576155e-02, 0., 0., 0., 0., 0.,
          1.06394961e-01, 3.96445245e-01, 0., 0., 5.11915376e-03,
          7.81433657e-02, 1.08838953e-01, 1.20663397e-01, 1.28688112e-01,
          2.83989966e-01, 8.81555676e-02, 2.57921934e-01, 1.43891901e-01,
          1.02319077e-01, 5.92947565e-03, 7.71554783e-02, 1.18623458e-01,
          1.87485188e-01, 0., 6.16760254e-02, 2.81757683e-01,
          1.19779520e-01, 7.89002329e-02, 1.55436462e-02, 3.99351604e-02,
          4.01939511e-01, 1.10593624e-01, 8.06985721e-02, 0., 0.,
          7.46105239e-02, 0., 8.66131634e-02, 3.49952340e-01,
          6.84402287e-02, 7.25276172e-02, 0., 0., 0., 0., 1.48083851e-01,
          3.73996757e-02, 0., 0., 5.27676567e-02, 1.01325177e-01,
          6.84676878e-03, 0. ]
      - [ 2.32849434e-01, 1.07647285e-01, 6.72469586e-02, 0., 0., 0., 0.,
          1.99233145e-01, 2.25520253e-01, 1.90607116e-01, 1.06250413e-01,
          1.02068208e-01, 6.20125681e-02, 0., 2.09452063e-02,
          2.29888111e-01, 1.96873918e-01, 5.23086172e-03, 0.,
          5.34566529e-02, 5.05071841e-02, 8.54143724e-02, 1.05542779e-01,
          2.05838501e-01, 2.62353808e-01, 5.23086172e-03, 5.71504086e-02,
          7.94645473e-02, 9.13258567e-02, 1.44746169e-01, 1.66202381e-01,
          2.46641830e-01, 3.84391919e-02, 2.19862182e-02, 1.02823861e-01,
          1.40342414e-01, 1.26632154e-01, 1.47271633e-01, 1.82493046e-01,
          5.04944287e-02, 5.59010170e-02, 1.30989939e-01, 1.28171220e-01,
          0., 0., 1.26019120e-01, 1.12011321e-01, 0., 2.20005319e-01,
          2.67257899e-01, 1.45728499e-01, 8.68142247e-02, 6.52677193e-02,
          0., 0., 1.06722519e-01, 1.37244269e-01, 2.30783463e-01,
          3.86742949e-02, 7.47073591e-02, 8.08040053e-02, 4.21466269e-02,
          0., 9.16995760e-03 ]
      - [ 9.20400396e-02, 8.54953527e-02, 7.05432594e-02, 6.39504567e-02,
          1.09621577e-01, 2.02514425e-01, 1.71005517e-01, 1.37034312e-01,
          1.34466484e-01, 1.44683823e-01, 1.16029359e-01, 1.28212959e-01,
          1.40119746e-01, 2.04709157e-01, 1.25324458e-01, 1.22235604e-01,
          1.39829248e-01, 1.60173729e-01, 3.62577848e-02, 0.,
          3.04783303e-02, 6.16668984e-02, 9.84159261e-02, 1.63756832e-01,
          1.44304976e-01, 6.69129342e-02, 6.29200786e-02, 4.19515744e-02,
          1.07420854e-01, 2.29013368e-01, 1.46684617e-01, 9.99363512e-02,
          1.31747827e-01, 2.34662425e-02, 6.82179704e-02, 9.97921526e-02,
          1.08362220e-01, 1.52109250e-01, 1.65220588e-01, 1.45561293e-01,
          1.59055039e-01, 1.46648824e-01, 0., 0., 2.89142840e-02,
          8.43904763e-02, 1.28905967e-01, 1.88312814e-01, 1.28758222e-01,
          1.40839860e-01, 1.16523378e-01, 1.34568363e-01, 1.05769448e-01,
          2.45041102e-01, 1.17267475e-01, 9.25017446e-02, 1.07736379e-01,
          7.06636086e-02, 8.61649886e-02, 7.01823980e-02, 7.98748583e-02,
          1.89507321e-01, 1.49745896e-01, 1.43867865e-01 ]
      - [ 1.84285417e-01, 1.73101611e-02, 0., 6.63527250e-02,
          1.10862464e-01, 4.41914722e-02, 1.41899409e-02, 7.72035420e-02,
          1.68747790e-02, 7.65872672e-02, 1.26745537e-01, 0., 0., 0., 0.,
          0., 0., 1.03271432e-01, 3.32145333e-01, 8.33520964e-02,
          3.04471612e-01, 1.62330508e-01, 9.95967612e-02, 5.93620799e-02,
          0., 1.25482857e-01, 3.00503880e-01, 1.24748670e-01,
          3.60218018e-01, 1.98828071e-01, 8.59793350e-02, 5.74048236e-02,
          0., 3.72262299e-02, 2.80124605e-01, 2.00206842e-02,
          7.50336647e-02, 9.86020267e-02, 1.14143835e-02, 7.89031014e-02,
          1.22782048e-02, 9.43760276e-02, 3.07494342e-01, 0., 0., 0., 0.,
          0., 0., 3.80133390e-02, 2.84307450e-01, 2.20759995e-02, 0., 0.,
          0., 0., 1.73104182e-01, 1.98594239e-02, 1.84699342e-01, 0.,
          6.23386838e-02, 0., 0., 0. ]
      - [ 1.00180641e-01, 1.17868103e-01, 0., 0., 1.37654580e-02, 0., 0.,
          0., 1.44492254e-01, 2.90381640e-01, 1.13420367e-01, 0., 0., 0.,
          0., 0., 7.28154033e-02, 2.46168688e-01, 1.84323981e-01, 0., 0.,
          1.18965641e-01, 1.07174389e-01, 0., 0., 3.43623385e-02,
          2.04771236e-01, 1.79242700e-01, 1.61797553e-01, 1.49805695e-01,
          1.39820978e-01, 1.41989097e-01, 2.86589414e-01, 3.36127765e-02,
          4.45560850e-02, 0., 1.31104648e-01, 1.50677204e-01,
          1.48794726e-01, 2.17300802e-01, 2.20539108e-01, 1.90522168e-02,
          0., 0., 0., 7.74772540e-02, 8.30847397e-02, 1.45281196e-01,
          2.33405367e-01, 2.02396855e-01, 1.57092392e-01, 1.41974688e-01,
          6.09542802e-02, 0., 2.87866425e-02, 1.53658703e-01,
          2.80528665e-01, 1.16103888e-01, 0., 7.62057975e-02,
          1.37654580e-02, 0., 4.58072871e-02, 1.50046334e-01 ]
      - [ 1.47948489e-01, 1.44362301e-02, 0., 2.14277599e-02,
          5.05518541e-02, 0., 5.75573631e-02, 1.24205761e-01,
          1.48031399e-01, 1.72128052e-01, 2.15570733e-01, 5.31562185e-03,
          0., 0., 0., 0., 1.79333940e-01, 1.49686024e-01, 1.99581042e-01,
          9.64735299e-02, 9.77353901e-02, 1.17687322e-01, 8.12652633e-02,
          9.54506248e-02, 9.78693068e-02, 9.93522182e-02, 1.51395306e-01,
          1.81507453e-01, 1.92572609e-01, 2.05510452e-01, 1.53817147e-01,
          1.58522442e-01, 1.00242503e-01, 1.38360366e-01, 1.31994188e-01,
          9.23324525e-02, 2.08946899e-01, 1.36007711e-01, 1.54441103e-01,
          1.44492149e-01, 1.44143790e-01, 1.72072828e-01, 5.59271425e-02,
          8.77131745e-02, 1.08275957e-01, 9.71260667e-02, 1.05066277e-01,
          9.48921442e-02, 1.54713273e-01, 1.89925537e-01, 1.83650360e-01,
          1.31915957e-01, 1.11476824e-01, 8.15934390e-02, 9.35470611e-02,
          8.70432258e-02, 1.88543081e-01, 1.43652126e-01, 1.16926022e-01,
          0., 4.98398207e-02, 0., 1.01049669e-01, 1.35371998e-01 ]
      - [ 1.58811003e-01, 1.21032871e-01, 1.27745107e-01, 1.63005516e-01,
          9.18554440e-02, 2.35375185e-02, 1.60062071e-02, 1.78208619e-01,
          1.95076227e-01, 1.48075417e-01, 2.20018893e-01, 1.92881718e-01,
          9.08611491e-02, 3.85835804e-02, 5.99020645e-02, 1.45390615e-01,
          4.85166349e-02, 7.38464817e-02, 4.97472398e-02, 1.26918733e-01,
          1.45415559e-01, 1.70124829e-01, 9.32160094e-02, 8.92992765e-02,
          3.34756151e-02, 0., 0., 9.34167206e-02, 1.69291601e-01,
          2.33772621e-01, 1.77378148e-01, 7.73208439e-02, 1.37824401e-01,
          1.00310102e-01, 0., 0., 1.28560856e-01, 1.37992114e-01,
          1.98778480e-01, 2.22287446e-01, 0., 0., 0., 1.12703294e-02,
          6.11102991e-02, 1.29696488e-01, 1.38707414e-01, 1.68823734e-01,
          1.61210492e-01, 1.46671534e-01, 1.36555120e-01, 1.31105661e-01,
          1.47053733e-01, 3.13061401e-02, 1.39682010e-01, 1.43038899e-01,
          1.40656978e-01, 1.07092887e-01, 1.09149635e-01, 6.80744052e-02,
          1.39678493e-01, 3.76798585e-02, 8.50355998e-02, 1.69053555e-01 ]
      - [ 0., 0., 0., 0., 1.66854039e-01, 9.34550315e-02, 1.09006345e-01,
          1.74740568e-01, 2.64375448e-01, 5.17254956e-02, 1.89111829e-01,
          2.29872853e-01, 0., 0., 0., 0., 3.49650145e-01, 0., 0., 0.,
          1.65517759e-02, 0., 9.84174479e-03, 1.47168413e-02,
          4.05434035e-02, 0., 6.51543364e-02, 1.19652800e-01,
          1.13588363e-01, 6.19188845e-02, 1.12869836e-01, 1.77122310e-01,
          3.70108970e-02, 0., 0., 0., 2.54184693e-01, 8.51606578e-02,
          4.16097529e-02, 4.58825342e-02, 4.02288288e-01, 1.32138163e-01,
          7.13176876e-02, 1.29292950e-01, 1.65517759e-02, 0.,
          9.84174479e-03, 1.47168413e-02, 3.62603366e-01, 6.95916452e-03,
          1.00597821e-01, 1.50865138e-01, 2.08955929e-01, 0., 0., 0., 0.,
          0., 0., 0., 8.92309695e-02, 1.28422976e-01, 9.62800011e-02,
          1.88110992e-01 ]
      - [ 1.30432814e-01, 0., 0., 0., 2.91165113e-01, 1.54623827e-02,
          8.85158777e-02, 6.03140220e-02, 1.69956207e-01, 2.47247458e-01,
          9.71682593e-02, 1.10101707e-01, 2.43527979e-01, 2.28812043e-02,
          3.02795344e-03, 0., 1.61297202e-01, 3.47134173e-01,
          1.07360728e-01, 1.54224355e-02, 1.33431837e-01, 9.43083838e-02,
          4.16755304e-02, 6.39407635e-02, 7.87548572e-02, 2.04221517e-01,
          0., 0., 3.13639492e-01, 1.04354508e-01, 8.80620927e-02,
          2.08704788e-02, 2.40130857e-01, 1.48549452e-01, 5.90498820e-02,
          1.06537253e-01, 1.33396313e-01, 1.00864790e-01, 8.73288810e-02,
          9.84922275e-02, 2.81983882e-01, 2.24818930e-01, 2.58758105e-02,
          0., 0., 0., 0., 0., 1.93854988e-01, 1.83319241e-01, 0., 0., 0.,
          0., 0., 0., 1.22855514e-01, 8.56434554e-03, 0., 0.,
          4.43944298e-02, 0., 0., 0. ]
      - [ 1.49427772e-01, 1.83450133e-02, 0., 2.07232475e-01,
          9.80833843e-02, 9.84705985e-02, 8.08207840e-02, 4.54460829e-02,
          1.67998821e-01, 1.35156304e-01, 1.15577757e-01, 1.88020796e-01,
          0., 0., 0., 0., 3.12399268e-01, 2.50971794e-01, 2.78299078e-02,
          8.78232792e-02, 1.03091314e-01, 3.41355093e-02, 5.36177121e-02,
          7.69228637e-02, 1.92709193e-01, 9.58677530e-02, 2.36487910e-01,
          2.70668745e-01, 7.39956722e-02, 9.87676904e-02, 7.70350099e-02,
          5.12217917e-02, 0., 5.34779616e-02, 0., 1.17176168e-01,
          1.74257711e-01, 9.18730572e-02, 5.93956374e-02, 6.52242452e-02,
          2.94541359e-01, 2.30564997e-01, 0., 0., 0., 0., 0., 0.,
          3.16806316e-01, 2.55128890e-01, 1.15275577e-01, 0., 0., 0., 0.,
          0., 1.78418800e-01, 7.84000382e-02, 0., 4.82693221e-03,
          4.97554727e-02, 0., 0., 0. ]
      - [ 0., 2.77500078e-02, 1.04237303e-01, 2.93062121e-01,
          5.78231514e-02, 8.55614617e-02, 8.49969983e-02, 1.58243582e-01,
          2.43805975e-01, 9.12742242e-02, 1.52691528e-01, 2.98664689e-01,
          0., 0., 0., 0., 4.04609531e-01, 1.07062936e-01, 1.63484830e-02,
          0., 7.11129010e-02, 8.95955414e-02, 2.73554344e-02,
          6.77300692e-02, 2.26231605e-01, 5.38862124e-02, 9.24143046e-02,
          2.26528198e-01, 0., 8.05663019e-02, 1.91908963e-02,
          1.34560570e-01, 0., 0., 0., 5.49965464e-02, 7.26700723e-02,
          4.73681800e-02, 1.02185465e-01, 1.85298890e-01, 3.25419962e-01,
          0., 0., 0., 0., 0., 0., 0., 3.12845856e-01, 1.08650550e-01,
          8.50829706e-02, 1.52843326e-01, 0., 0., 1.52137820e-02, 0.,
          5.28597124e-02, 1.06156552e-02, 0., 0., 0., 0., 1.06156552e-02,
          2.04312101e-01 ]
      - [ 1.93911523e-01, 8.13080650e-03, 0., 0., 1.93384252e-02, 0., 0.,
          0., 3.09056848e-01, 1.10605069e-01, 0., 0., 0., 0., 0., 0.,
          1.41515329e-01, 9.58505273e-02, 0., 6.97210878e-02,
          4.51195054e-02, 5.16158491e-02, 7.18943998e-02, 2.47020006e-01,
          1.80199862e-01, 1.07272848e-01, 1.05447851e-01, 1.01643458e-01,
          6.78425506e-02, 9.31624174e-02, 1.06469691e-01, 3.76714170e-01,
          1.59176931e-01, 5.50536700e-02, 7.27873668e-02, 2.10281283e-01,
          1.01753719e-01, 5.78449517e-02, 7.91985467e-02, 1.17771097e-01,
          2.29209736e-01, 7.49024972e-02, 0., 1.33947268e-01,
          5.11091277e-02, 7.23142475e-02, 7.25431740e-02, 0.,
          1.34434849e-01, 1.30119324e-01, 1.95558697e-01, 1.94440454e-01,
          9.57770422e-02, 1.10912785e-01, 1.07793972e-01, 2.21901104e-01,
          8.62621889e-02, 7.85260350e-02, 9.95463058e-02, 1.67525604e-01,
          8.55892375e-02, 8.58825296e-02, 7.43561685e-02, 2.26194352e-01 ]
      - [ 6.23893589e-02, 8.78465455e-03, 0., 3.12526137e-01,
          7.28404298e-02, 9.55535546e-02, 7.56073445e-02, 1.19482428e-01,
          2.00547799e-01, 1.58442199e-01, 1.00259498e-01, 3.20548981e-01,
          0., 0., 0., 0., 2.30674207e-01, 3.30148250e-01, 0.,
          1.14547417e-01, 7.80014545e-02, 1.06091715e-01, 0.,
          8.43553916e-02, 3.85620035e-02, 2.38490969e-01, 1.79069135e-02,
          2.63676941e-01, 7.79097825e-02, 1.01441510e-01, 8.60942081e-02,
          5.18436432e-02, 2.31607944e-01, 7.89161772e-02, 1.02157600e-01,
          7.78322890e-02, 7.62475729e-02, 1.03818581e-01, 7.65722618e-02,
          4.10766229e-02, 3.69345248e-01, 4.04300876e-02, 0., 0., 0., 0.,
          0., 0., 2.89561898e-01, 7.05164373e-02, 0., 0., 0., 0., 0., 0.,
          5.87868318e-02, 8.78465455e-03, 0., 0., 2.08935477e-02, 0., 0.,
          0. ]
      - [ 8.56876671e-02, 1.02890529e-01, 1.04799755e-01, 1.49035722e-01,
          1.16097100e-01, 1.52715608e-01, 1.49026439e-01, 1.26535833e-01,
          1.59668744e-01, 1.29038528e-01, 1.71177253e-01, 1.89498425e-01,
          1.84364051e-01, 9.50643271e-02, 1.06093995e-01, 1.25244632e-01,
          1.57381698e-01, 2.67469995e-02, 0., 1.00237668e-01,
          9.79300588e-02, 8.41947421e-02, 9.35382843e-02, 1.37491122e-01,
          1.29095197e-01, 8.56849179e-02, 6.89917207e-02, 0.,
          1.46637693e-01, 1.88741684e-01, 1.74786195e-01, 1.35876209e-01,
          1.34522289e-01, 9.61997285e-02, 9.13087055e-02, 6.63955286e-02,
          1.28995627e-01, 1.40583530e-01, 1.64236471e-01, 1.75603732e-01,
          1.30114108e-01, 9.79434326e-02, 0., 8.15065578e-03,
          5.61126545e-02, 1.25100747e-01, 1.20410457e-01, 1.57051623e-01,
          1.58186555e-01, 1.12719290e-01, 1.70536220e-01, 2.03386515e-01,
          8.34668800e-02, 1.00792460e-01, 1.19456023e-01, 1.26192987e-01,
          1.24085449e-01, 1.19803503e-01, 1.22980580e-01, 7.70591646e-02,
          1.38279751e-01, 3.60308401e-02, 1.01235963e-01, 1.60995021e-01 ]
      - [ 9.67743397e-02, 6.43379092e-02, 6.88865110e-02, 0.,
          9.78719145e-02, 1.66973084e-01, 1.96108699e-01, 1.48209289e-01,
          1.38238668e-01, 1.36755258e-01, 1.56302541e-01, 1.55691072e-01,
          1.59227625e-01, 1.61949649e-01, 1.33297175e-01, 9.39079449e-02,
          1.16378844e-01, 1.36800021e-01, 0., 0., 3.60146053e-02, 0.,
          9.49971005e-02, 1.89091250e-01, 6.32342324e-02, 6.86679706e-02,
          0., 6.11688495e-02, 1.08237922e-01, 2.50064433e-01,
          1.61335394e-01, 1.50924444e-01, 7.16441646e-02, 0.,
          8.07747021e-02, 6.81443661e-02, 1.20284334e-01, 2.07484022e-01,
          1.50183022e-01, 1.65770546e-01, 1.44104585e-01, 1.39583766e-01,
          4.46216688e-02, 0., 3.72667685e-02, 0., 1.09647490e-01,
          2.10497454e-01, 1.57746196e-01, 1.38727769e-01, 1.59073830e-01,
          1.61862835e-01, 1.41440913e-01, 1.80517465e-01, 1.31786332e-01,
          1.35799080e-01, 9.10139456e-02, 6.85528293e-02, 0.,
          6.98760301e-02, 8.36934224e-02, 1.16715088e-01, 1.98587462e-01,
          1.39968142e-01 ]
      - [ 1.25819683e-01, 1.10109203e-01, 1.02516100e-01, 1.27198756e-01,
          6.96069673e-02, 0., 1.43289477e-01, 1.28925383e-01,
          1.50956511e-01, 1.56440109e-01, 1.91220462e-01, 1.47942245e-01,
          9.36318561e-02, 1.00176573e-01, 1.26672342e-01, 9.24973711e-02,
          1.39927521e-01, 1.32495940e-01, 1.08443297e-01, 0.,
          1.55816033e-01, 1.01253875e-01, 1.10840626e-01, 1.04478106e-01,
          1.07778676e-01, 1.09876104e-01, 9.84932184e-02, 1.26584947e-01,
          1.84160978e-01, 1.26659751e-01, 1.71870470e-01, 1.31508380e-01,
          1.25291497e-01, 1.11436404e-01, 8.99756923e-02, 9.36928466e-02,
          1.96952939e-01, 1.53480634e-01, 1.47637144e-01, 1.29191026e-01,
          1.67851090e-01, 1.28717065e-01, 3.69485840e-02, 9.41850021e-02,
          1.09098867e-01, 1.30246028e-01, 1.10536329e-01, 1.41198233e-01,
          1.60188556e-01, 1.56399012e-01, 1.39004394e-01, 1.60763681e-01,
          6.52011335e-02, 1.05412938e-01, 1.27301604e-01, 1.07208207e-01,
          1.47488788e-01, 1.11300357e-01, 1.30359516e-01, 1.06298521e-01,
          1.86509080e-02, 5.69623113e-02, 1.30728915e-01, 1.34597912e-01 ]
      - [ 1.11751847e-01, 7.91091099e-03, 0., 0., 3.39199901e-02, 0.,
          1.21319957e-01, 2.09304035e-01, 1.46271512e-01, 1.43720850e-01,
          1.51395306e-01, 0., 0., 1.45382537e-02, 3.32895219e-02,
          7.15008825e-02, 2.04781383e-01, 1.62801310e-01, 1.74840897e-01,
          8.15345347e-02, 0., 7.18397796e-02, 6.25412446e-03,
          1.56965896e-01, 1.81371480e-01, 7.19052181e-02, 0.,
          1.48051500e-01, 1.66205704e-01, 1.64287031e-01, 1.96034461e-01,
          1.69289261e-01, 2.10230261e-01, 1.15933061e-01, 6.36457056e-02,
          9.38168690e-02, 1.43655375e-01, 1.82641968e-01, 1.38464436e-01,
          1.51623011e-01, 1.51892006e-01, 1.59012631e-01, 1.90593958e-01,
          0., 8.04289058e-02, 7.05972835e-02, 4.33767848e-02,
          1.46624923e-01, 1.84703305e-01, 1.66359410e-01, 1.56203091e-01,
          1.32249683e-01, 3.78787406e-02, 0., 1.69404775e-01,
          1.50557324e-01, 1.75435066e-01, 1.17371671e-01, 0., 0.,
          3.25892717e-02, 0., 1.98782146e-01, 1.06827773e-01 ]
      - [ 1.08891509e-01, 8.65909271e-03, 0., 0., 2.92312860e-01,
          8.63093063e-02, 7.21476078e-02, 1.08851723e-01, 1.11837991e-01,
          2.07368836e-01, 9.50313956e-02, 1.35068595e-01, 2.59997994e-01,
          0., 0., 0., 1.75098538e-01, 3.62398773e-01, 3.47881094e-02, 0.,
          1.91812977e-01, 7.03106746e-02, 4.35553230e-02, 6.32381588e-02,
          7.88058117e-02, 2.61254430e-01, 1.59674417e-02, 0.,
          3.12925339e-01, 4.18443531e-02, 9.82294232e-02, 2.24369522e-02,
          2.73817301e-01, 8.51309821e-02, 4.24554832e-02, 1.29497081e-01,
          7.37185553e-02, 9.97101218e-02, 7.16339052e-02, 3.55206095e-02,
          3.57683688e-01, 7.96679407e-02, 0., 0., 0., 0., 0., 0.,
          2.38472387e-01, 8.28504488e-02, 0., 0., 0., 0., 0., 0.,
          1.01581663e-01, 8.65909271e-03, 0., 0., 3.71280015e-02, 0., 0.,
          0. ]
      - [ 0., 1.35739133e-01, 1.85520589e-01, 2.99778372e-01,
          7.61071071e-02, 6.33769110e-02, 6.85932636e-02, 1.51689619e-01,
          1.67347908e-01, 8.54312256e-02, 1.55304328e-01, 3.42493474e-01,
          0., 0., 0., 0., 2.03710899e-01, 0., 5.16011640e-02, 0.,
          7.86169693e-02, 8.45067799e-02, 5.46358526e-02, 3.10310364e-01,
          1.48540765e-01, 4.93586110e-03, 1.16701238e-02, 1.56942278e-01,
          8.87215883e-02, 6.97708800e-02, 1.12099119e-01, 3.38842988e-01,
          5.63007742e-02, 0., 0., 0., 0., 0., 9.28857923e-03, 0., 0., 0.,
          0., 0., 3.89355905e-02, 0., 9.87172220e-03, 9.11550671e-02,
          2.03138962e-01, 8.93789157e-02, 6.48850650e-02, 9.91261750e-02,
          0., 5.92390820e-02, 8.58893171e-02, 3.57980996e-01, 0., 0., 0.,
          0., 0., 0., 3.49018094e-03, 2.89459616e-01 ]
      - [ 1.58549666e-01, 1.53823020e-02, 0., 0., 2.19639510e-01,
          1.01805307e-01, 7.62422085e-02, 4.32950519e-02, 1.08822942e-01,
          2.07317650e-01, 8.78885612e-02, 7.82909021e-02, 1.92262620e-01,
          3.45480293e-02, 0., 0., 8.54690373e-03, 2.46112287e-01,
          2.88999736e-01, 0., 2.50774056e-01, 9.29992497e-02,
          6.51530400e-02, 4.94195223e-02, 0., 1.10069744e-01,
          2.72270024e-01, 0., 3.41030121e-01, 1.23643056e-01,
          8.64263102e-02, 1.07415415e-01, 0., 3.20701718e-01,
          9.37384069e-02, 6.82977140e-02, 1.28623262e-01, 4.74411659e-02,
          1.00571401e-01, 2.94587631e-02, 1.53718993e-01, 3.28373283e-01,
          0., 0., 0., 0., 0., 0., 0., 1.97292566e-01, 2.59553157e-02, 0.,
          0., 0., 0., 0., 1.48194402e-01, 1.76476482e-02, 0., 0.,
          5.34515977e-02, 0., 0., 0. ]
      - [ 0., 1.28248706e-01, 2.31336728e-01, 2.50184804e-01,
          5.87422587e-02, 2.55972650e-02, 1.10807396e-01, 2.31714576e-01,
          1.06732316e-01, 8.78328755e-02, 1.89961463e-01, 3.17768127e-01,
          0., 0., 0., 0., 7.09517300e-02, 0., 0., 1.17956111e-02,
          8.44208375e-02, 9.46699530e-02, 6.77305013e-02, 3.07706892e-01,
          4.53038551e-02, 9.80007648e-03, 2.04138868e-02, 1.72234669e-01,
          8.55040327e-02, 9.99847427e-02, 2.56115831e-02, 3.98005456e-01,
          4.39511985e-02, 0., 0., 0., 0., 0., 7.30454596e-03,
          1.79068092e-02, 1.73732359e-02, 0., 0., 0., 4.39511985e-02, 0.,
          9.23960097e-03, 1.15188912e-01, 9.48276967e-02, 8.34068879e-02,
          1.12619981e-01, 6.00270256e-02, 7.78004304e-02, 7.73539916e-02,
          8.07774141e-02, 3.58874142e-01, 0., 0., 0., 0., 0., 0.,
          8.00172891e-03, 3.38405490e-01 ]
      - [ 0., 3.07268836e-03, 5.15620448e-02, 3.11254174e-01,
          9.97766182e-02, 9.26331133e-02, 5.82003854e-02, 1.80398509e-01,
          2.63536245e-01, 1.20365694e-01, 1.20291352e-01, 3.38384420e-01,
          0., 0., 0., 0., 3.08203489e-01, 2.23162279e-01, 1.51114967e-02,
          0., 6.26258999e-02, 3.77991609e-02, 6.64047673e-02,
          7.71888942e-02, 1.33956820e-01, 7.18907937e-02, 5.18469140e-02,
          2.28860155e-01, 8.88953358e-02, 7.91914240e-02, 7.71664530e-02,
          1.49449661e-01, 5.63721396e-02, 1.20285274e-02, 2.93829963e-02,
          1.13603212e-01, 1.16456829e-01, 6.56234846e-02, 9.55711231e-02,
          1.77159160e-01, 3.29938799e-01, 2.90908739e-02, 0., 0.,
          2.73445044e-02, 0., 1.01909544e-02, 5.15998118e-02,
          2.90788084e-01, 7.99223185e-02, 1.07995637e-01, 7.78198093e-02,
          0., 0., 0., 0., 0., 0., 0., 0., 0., 0., 5.32205263e-03,
          2.33026117e-01 ]
      - [ 1.54782534e-01, 1.61604546e-02, 1.38042243e-02, 2.27816239e-01,
          1.38586417e-01, 4.96720970e-02, 7.77508616e-02, 6.81442246e-02,
          1.59259647e-01, 1.86621830e-01, 1.05550796e-01, 2.38811612e-01,
          0., 0., 0., 0., 1.42328799e-01, 3.76224130e-01, 2.16106866e-02,
          1.48952976e-01, 5.83196767e-02, 1.01507902e-01, 5.93107864e-02,
          3.57514806e-02, 9.40071568e-02, 2.50997812e-01, 3.06027532e-02,
          3.21169585e-01, 7.95131251e-02, 9.65772197e-02, 8.37295428e-02,
          4.91575263e-02, 1.20553583e-01, 8.44457839e-03, 7.77823627e-02,
          1.29919514e-01, 1.33141264e-01, 9.65363383e-02, 6.84042796e-02,
          3.77118886e-02, 3.48098636e-01, 1.14286438e-01, 0., 0., 0., 0.,
          0., 0., 3.28805834e-01, 1.36662290e-01, 4.73037586e-02, 0., 0.,
          0., 0., 0., 1.44673318e-01, 3.70639227e-02, 0., 0.,
          5.25427163e-02, 0., 0., 0. ]
      - [ 1.27087489e-01, 1.84388980e-01, 5.64805046e-02, 8.18707719e-02,
          0., 0., 0., 0., 1.49394885e-01, 2.54696369e-01, 2.04162702e-01,
          6.52536899e-02, 5.84372766e-02, 0., 6.71872497e-02,
          7.63829872e-02, 3.42197232e-02, 5.69445975e-02, 1.96685299e-01,
          1.44035801e-01, 7.71673173e-02, 9.22981873e-02, 0., 0., 0., 0.,
          1.24953389e-01, 2.00963795e-01, 1.75525904e-01, 1.67577028e-01,
          9.84779298e-02, 7.43335485e-02, 1.94860190e-01, 8.32902640e-02,
          7.63621256e-02, 9.68864262e-02, 1.30440623e-01, 1.52813524e-01,
          2.01304153e-01, 2.03193441e-01, 1.94682375e-01, 0., 0., 0.,
          7.93236494e-02, 8.03508312e-02, 1.45123005e-01, 1.99400261e-01,
          1.89061731e-01, 1.67787209e-01, 1.38444677e-01, 1.53486565e-01,
          5.56709096e-02, 7.33116642e-02, 1.68747783e-01, 1.89669043e-01,
          1.71576440e-01, 1.27736598e-01, 4.40769307e-02, 7.39908069e-02,
          8.11585262e-02, 0., 1.37039527e-01, 1.81026444e-01 ]
      - [ 1.37161523e-01, 1.59713835e-01, 7.85689726e-02, 5.42078167e-02,
          0., 0., 1.19398665e-02, 1.70024201e-01, 2.18254432e-01,
          1.71709970e-01, 1.81573868e-01, 1.47795305e-01, 5.75106107e-02,
          3.62921096e-02, 8.10976401e-02, 6.66463673e-02, 9.11740884e-02,
          8.02387223e-02, 1.55960113e-01, 1.64358765e-01, 1.09811686e-01,
          1.68433055e-01, 1.18922375e-01, 8.16922188e-02, 3.78549322e-02,
          0., 8.79404917e-02, 1.77233085e-01, 1.89761400e-01,
          2.14077860e-01, 2.18817055e-01, 8.99782851e-02, 1.36630595e-01,
          1.02666356e-02, 0., 0., 0., 1.69015348e-01, 2.01649532e-01,
          2.32934952e-01, 3.07044038e-03, 0., 0., 0., 3.00840475e-02, 0.,
          9.47745442e-02, 1.72510967e-01, 1.90608740e-01, 1.42353415e-01,
          2.00418860e-01, 1.43626273e-01, 1.34991825e-01, 3.88021469e-02,
          6.47258162e-02, 1.88854009e-01, 1.31690070e-01, 9.60060433e-02,
          8.98792595e-02, 1.16330460e-01, 6.59796372e-02, 1.11898214e-01,
          8.53643417e-02, 1.81627259e-01 ]
      - [ 1.19711503e-01, 1.85318545e-01, 0., 0., 7.34391958e-02, 0., 0.,
          1.00377370e-02, 1.52750924e-01, 2.46648714e-01, 2.06149936e-01,
          0., 0., 6.66455850e-02, 0., 6.82939589e-02, 1.49943670e-02,
          1.08129270e-01, 1.98947489e-01, 1.54113680e-01, 0.,
          7.93313086e-02, 6.91123903e-02, 0., 2.06754021e-02,
          9.59378947e-03, 1.24452062e-01, 2.16338396e-01, 1.78587362e-01,
          1.70949191e-01, 9.65732113e-02, 7.61498883e-02, 1.89919248e-01,
          8.67790915e-03, 0., 5.79066984e-02, 1.35223597e-01,
          1.80984288e-01, 1.82237059e-01, 2.17342123e-01, 1.91202834e-01,
          1.32331038e-02, 0., 0., 0., 7.70473480e-02, 1.30596995e-01,
          2.45072216e-01, 1.91801906e-01, 1.81444377e-01, 1.51459500e-01,
          1.43785954e-01, 6.70493692e-02, 0., 1.31109715e-01,
          1.86499894e-01, 2.44952947e-01, 7.28335306e-02, 0.,
          8.49694386e-02, 1.37597742e-02, 0., 1.20836213e-01,
          1.91854447e-01 ]
      - [ 1.17769301e-01, 1.37205124e-01, 1.43882588e-01, 1.33364260e-01,
